{"learner":{"attributes":{"scikit_learn":"{\"_estimator_type\": \"classifier\"}"},"feature_names":["Pregnancies","Glucose","BloodPressure","Insulin","BMI","Pedigree","Age"],"feature_types":["float","float","float","float","float","float","float"],"gradient_booster":{"model":{"gbtree_model_param":{"num_parallel_tree":"1","num_trees":"100"},"iteration_indptr":[0,1,2,3,4,5,6,7,8,9,10,11,12,13,14,15,16,17,18,19,20,21,22,23,24,25,26,27,28,29,30,31,32,33,34,35,36,37,38,39,40,41,42,43,44,45,46,47,48,49,50,51,52,53,54,55,56,57,58,59,60,61,62,63,64,65,66,67,68,69,70,71,72,73,74,75,76,77,78,79,80,81,82,83,84,85,86,87,88,89,90,91,92,93,94,95,96,97,98,99,100],"tree_info":[0,0,0,0,0,0,0,0,0,0,0,0,0,0,0,0,0,0,0,0,0,0,0,0,0,0,0,0,0,0,0,0,0,0,0,0,0,0,0,0,0,0,0,0,0,0,0,0,0,0,0,0,0,0,0,0,0,0,0,0,0,0,0,0,0,0,0,0,0,0,0,0,0,0,0,0,0,0,0,0,0,0,0,0,0,0,0,0,0,0,0,0,0,0,0,0,0,0,0,0],"trees":[{"base_weights":[-2.0086223E-2,-6.795388E-1,1.1190666E0,-1.1811624E0,-1.0281509E-2,-1.6387218E-1,1.5908966E0,-4.3656006E-1,-7.8303903E-1,-1.2515522E0,3.3188564E-1,-8.314535E-1,7.780588E-1,1.0768619E0,2.1555457E0,8.222122E-2,-8.9903283E-1,-4.0183234E-1,-1.06215194E-1,-8.55017E-1,7.0596075E-1,-1.38236685E-2,-2.887834E-1,1.085636E-1,1.2801182E0,4.9520323E-1,1.4861016E0,6.6937006E-1,1.7418958E-1,-1.2120972E0,-2.7108875E-1,3.3987187E-2,-1.0307024E0,3.0266973E-1,1.5003929E0,2.3958503E-1,-1.6881411E-1,5.246486E-1,3.3987187E-2,5.5119246E-1,5.5338405E-3,6.2340133E-2,1.6556952E0,-1.5428406E-1,-4.179037E-1,1.4878987E-1,-2.5439024E-1,-3.7584093E-1,-5.3236987E-2,1.812169E-1,-1.8311803E-1,1.8395479E-1,5.686308E-1,1.2389143E-1,-2.9877958E-1,5.403885E-1,1.12880684E-1],"categories":[],"categories_nodes":[],"categories_segments":[],"categories_sizes":[],"default_left":[0,0,0,0,0,0,0,0,0,0,0,0,0,0,0,0,0,0,0,0,0,0,0,0,0,0,0,0,0,0,0,0,0,0,0,0,0,0,0,0,0,0,0,0,0,0,0,0,0,0,0,0,0,0,0,0,0],"id":0,"left_children":[1,3,5,7,9,11,13,-1,15,17,19,21,23,25,27,-1,29,-1,-1,31,33,-1,-1,35,37,39,41,-1,-1,43,45,-1,47,49,51,-1,-1,-1,-1,-1,53,-1,55,-1,-1,-1,-1,-1,-1,-1,-1,-1,-1,-1,-1,-1,-1],"loss_changes":[1.066543E2,3.016919E1,3.1774994E1,4.4658585E0,1.7202097E1,1.001949E1,8.753616E0,0E0,3.0802774E0,2.1600437E-1,1.4710804E1,9.039664E-1,2.1126761E0,4.4941635E0,7.529068E-1,0E0,3.8115044E0,0E0,0E0,1.489028E0,7.4617157E0,0E0,0E0,2.2853005E0,1.8447986E0,6.9389477E0,2.3436508E0,0E0,0E0,1.0214176E0,4.090855E0,0E0,1.0903502E0,5.223127E0,1.6649628E0,0E0,0E0,0E0,0E0,0E0,3.981757E0,0E0,1.3344612E0,0E0,0E0,0E0,0E0,0E0,0E0,0E0,0E0,0E0,0E0,0E0,0E0,0E0,0E0],"parents":[2147483647,0,0,1,1,2,2,3,3,4,4,5,5,6,6,8,8,9,9,10,10,11,11,12,12,13,13,14,14,16,16,19,19,20,20,23,23,24,24,25,25,26,26,29,29,30,30,32,32,33,33,34,34,40,40,42,42],"right_children":[2,4,6,8,10,12,14,-1,16,18,20,22,24,26,28,-1,30,-1,-1,32,34,-1,-1,36,38,40,42,-1,-1,44,46,-1,48,50,52,-1,-1,-1,-1,-1,54,-1,56,-1,-1,-1,-1,-1,-1,-1,-1,-1,-1,-1,-1,-1,-1],"split_conditions":[1.28E2,2.9E1,3E1,3.1E1,2.63E1,1.47E2,1.58E2,-4.3656006E-1,5.4E1,1.21E2,9.5E1,6E1,1.4E1,3.1E1,5.1E2,8.222122E-2,5.02E-1,-4.0183234E-1,-1.06215194E-1,6.7E1,5.14E-1,-1.38236685E-2,-2.887834E-1,2.6E1,1.46E2,6.1E1,2.03E-1,6.6937006E-1,1.7418958E-1,1.4E1,7E1,3.3987187E-2,1E1,8.4E1,5E0,2.3958503E-1,-1.6881411E-1,5.246486E-1,3.3987187E-2,5.5119246E-1,2.55E2,6.2340133E-2,1.1E1,-1.5428406E-1,-4.179037E-1,1.4878987E-1,-2.5439024E-1,-3.7584093E-1,-5.3236987E-2,1.812169E-1,-1.8311803E-1,1.8395479E-1,5.686308E-1,1.2389143E-1,-2.9877958E-1,5.403885E-1,1.12880684E-1],"split_indices":[1,6,4,4,4,1,1,0,2,1,1,2,3,6,3,0,5,0,0,1,5,0,0,4,3,2,5,0,0,3,2,0,0,2,0,0,0,0,0,0,3,0,0,0,0,0,0,0,0,0,0,0,0,0,0,0,0],"split_type":[0,0,0,0,0,0,0,0,0,0,0,0,0,0,0,0,0,0,0,0,0,0,0,0,0,0,0,0,0,0,0,0,0,0,0,0,0,0,0,0,0,0,0,0,0,0,0,0,0,0,0,0,0,0,0,0,0],"sum_hessian":[1.3996301E2,8.890159E1,5.1061424E1,5.0377567E1,3.852402E1,1.3905121E1,3.7156303E1,2.8266146E1,2.2111422E1,7.750395E0,3.0773626E1,8.206301E0,5.6988196E0,2.0971657E1,1.6184649E1,2.0515752E0,2.0059845E1,6.610631E0,1.139764E0,7.0665364E0,2.370709E1,1.3677168E0,6.838584E0,2.9633863E0,2.7354336E0,9.574018E0,1.1397639E1,1.5044885E1,1.139764E0,1.2765356E1,7.2944894E0,1.139764E0,5.9267726E0,1.6640554E1,7.0665364E0,1.3677168E0,1.5956695E0,1.5956695E0,1.139764E0,1.8236223E0,7.750395E0,1.5956695E0,9.8019705E0,3.419292E0,9.346065E0,3.191339E0,4.1031504E0,4.331103E0,1.5956695E0,1.2765356E1,3.8751974E0,2.9633863E0,4.1031504E0,5.9267726E0,1.8236223E0,8.434254E0,1.3677168E0],"tree_param":{"num_deleted":"0","num_feature":"7","num_nodes":"57","size_leaf_vector":"1"}},{"base_weights":[-2.864992E-2,-5.507418E-1,7.734387E-1,-9.9093705E-1,-2.465526E-2,-1.07333265E-1,1.0655122E0,-3.7668875E-1,-6.3700366E-1,-1.0761403E0,2.3056097E-1,-7.335424E-1,5.623688E-1,4.760118E-1,1.318218E0,-1.2748691E-1,-8.6326617E-1,-5.8802914E-2,-3.532455E-1,-7.124774E-1,4.9681813E-1,-3.1294733E-1,-3.6794448E-1,-5.7603594E-2,7.963795E-1,-9.78624E-2,9.946598E-1,1.399756E0,6.57077E-3,-9.93571E-1,1.1335318E0,-1.0509907E0,3.6975164E-2,2.837977E-2,-8.742913E-1,-4.4841108E-1,7.29365E-1,2.1913128E-1,-8.267286E-1,1.0895473E0,-2.9763063E-2,-6.823359E-1,3.140215E-1,3.9885765E-1,4.0184066E-1,1.4449261E0,1.1754887E-1,-3.293657E-1,-9.699223E-2,1.2058471E-1,4.168177E-1,2.0441772E-2,-3.5286295E-1,2.1074006E-1,-2.2746395E-1,-3.3245236E-1,-2.0688174E-2,3.4555335E-2,-3.130166E-1,2.6346165E-1,-1.3013433E-2,-6.572178E-2,-2.875219E-1,9.2022814E-2,4.568171E-1,-1.8993944E-2,-2.9836282E-1,2.1452981E-1,-1.6134278E-1,-1.14179775E-1,3.309651E-1,2.2867002E-1,4.62402E-1],"categories":[],"categories_nodes":[],"categories_segments":[],"categories_sizes":[],"default_left":[0,0,0,0,0,0,0,0,0,0,0,0,0,0,0,0,0,0,0,0,0,0,0,0,0,0,0,0,0,0,0,0,0,0,0,0,0,0,0,0,0,0,0,0,0,0,0,0,0,0,0,0,0,0,0,0,0,0,0,0,0,0,0,0,0,0,0,0,0,0,0,0,0],"id":1,"left_children":[1,3,5,7,9,11,13,-1,15,17,19,21,23,25,27,29,31,-1,-1,33,35,-1,37,-1,39,41,43,45,-1,47,49,51,53,-1,55,57,59,-1,61,63,-1,65,67,69,-1,71,-1,-1,-1,-1,-1,-1,-1,-1,-1,-1,-1,-1,-1,-1,-1,-1,-1,-1,-1,-1,-1,-1,-1,-1,-1,-1,-1],"loss_changes":[5.7434845E1,1.920721E1,1.4029285E1,3.4335136E0,1.06756735E1,6.442594E0,5.4374275E0,0E0,2.3529177E0,4.6188068E-1,8.411826E0,5.0640965E-1,1.4794087E0,4.1990986E0,2.9216423E0,9.58285E0,2.5098066E0,0E0,0E0,1.059119E0,5.957454E0,0E0,3.1996727E0,0E0,1.664897E0,2.0083752E0,9.7127104E-1,6.2952423E-1,0E0,3.255844E-3,1.1910486E-1,1.7803345E0,2.3788886E0,0E0,1.1150179E0,2.023769E0,2.44629E0,0E0,1.18308544E-1,1.0759687E0,0E0,5.933548E-1,2.1121805E0,2.6766095E0,0E0,4.5511627E-1,0E0,0E0,0E0,0E0,0E0,0E0,0E0,0E0,0E0,0E0,0E0,0E0,0E0,0E0,0E0,0E0,0E0,0E0,0E0,0E0,0E0,0E0,0E0,0E0,0E0,0E0,0E0],"parents":[2147483647,0,0,1,1,2,2,3,3,4,4,5,5,6,6,8,8,9,9,10,10,11,11,12,12,13,13,14,14,15,15,16,16,19,19,20,20,22,22,24,24,25,25,26,26,27,27,29,29,30,30,31,31,32,32,34,34,35,35,36,36,38,38,39,39,41,41,42,42,43,43,45,45],"right_children":[2,4,6,8,10,12,14,-1,16,18,20,22,24,26,28,30,32,-1,-1,34,36,-1,38,-1,40,42,44,46,-1,48,50,52,54,-1,56,58,60,-1,62,64,-1,66,68,70,-1,72,-1,-1,-1,-1,-1,-1,-1,-1,-1,-1,-1,-1,-1,-1,-1,-1,-1,-1,-1,-1,-1,-1,-1,-1,-1,-1,-1],"split_conditions":[1.28E2,2.9E1,3E1,3.1E1,2.63E1,1.46E2,3.05E-1,-3.7668875E-1,1.4E1,2.18E1,9.5E1,3E0,3E1,3.8E1,4.74E2,1.12E2,6.54E-1,-5.8802914E-2,-3.532455E-1,6.7E1,2.19E-1,-3.1294733E-1,4E0,-5.7603594E-2,5.4E1,3.33E1,1.45E2,1.441E0,6.57077E-3,3.76E1,7.2E1,5.4E1,6.8E1,2.837977E-2,4.3E1,3.44E1,8.5E1,2.1913128E-1,2.6E1,4.1E1,-2.9763063E-2,1.06E2,2.59E-1,7E0,4.0184066E-1,2.5E1,1.1754887E-1,-3.293657E-1,-9.699223E-2,1.2058471E-1,4.168177E-1,2.0441772E-2,-3.5286295E-1,2.1074006E-1,-2.2746395E-1,-3.3245236E-1,-2.0688174E-2,3.4555335E-2,-3.130166E-1,2.6346165E-1,-1.3013433E-2,-6.572178E-2,-2.875219E-1,9.2022814E-2,4.568171E-1,-1.8993944E-2,-2.9836282E-1,2.1452981E-1,-1.6134278E-1,-1.14179775E-1,3.309651E-1,2.2867002E-1,4.62402E-1],"split_indices":[1,6,4,4,4,1,5,0,3,4,1,0,6,6,3,1,5,0,0,1,5,0,0,0,6,4,1,5,0,4,2,2,2,0,6,4,2,0,4,6,0,3,5,0,0,6,0,0,0,0,0,0,0,0,0,0,0,0,0,0,0,0,0,0,0,0,0,0,0,0,0,0,0],"split_type":[0,0,0,0,0,0,0,0,0,0,0,0,0,0,0,0,0,0,0,0,0,0,0,0,0,0,0,0,0,0,0,0,0,0,0,0,0,0,0,0,0,0,0,0,0,0,0,0,0,0,0,0,0,0,0,0,0,0,0,0,0,0,0,0,0,0,0,0,0,0,0,0,0],"sum_hessian":[1.3513608E2,8.204505E1,5.3091022E1,4.418788E1,3.7857174E1,1.3378762E1,3.971226E1,2.3823578E1,2.0364302E1,6.7657704E0,3.1091404E1,6.864625E0,6.5141373E0,1.2780998E1,2.6931263E1,6.743093E0,1.3621209E1,1.001583E0,5.764188E0,6.476571E0,2.4614832E1,2.713414E0,4.1512113E0,1.5847735E0,4.9293637E0,6.4526143E0,6.328384E0,2.5262465E1,1.6687996E0,4.1232677E0,2.6198251E0,1.1132359E1,2.4888504E0,1.1510218E0,5.3255496E0,4.6768126E0,1.9938019E1,1.0486076E0,3.1026037E0,3.550539E0,1.3788247E0,2.3960037E0,4.056611E0,3.1104789E0,3.2179053E0,2.3763922E1,1.4985411E0,3.015905E0,1.1073629E0,1.3450079E0,1.2748172E0,1.1661233E0,9.966235E0,1.4183984E0,1.070452E0,3.8355772E0,1.4899722E0,2.8158703E0,1.8609424E0,1.660349E1,3.334528E0,1.026998E0,2.0756056E0,1.8733256E0,1.6772133E0,1.2065432E0,1.1894605E0,2.8671503E0,1.1894605E0,1.6947213E0,1.4157575E0,4.0428576E0,1.9721066E1],"tree_param":{"num_deleted":"0","num_feature":"7","num_nodes":"73","size_leaf_vector":"1"}},{"base_weights":[-3.631667E-2,-2.811572E-1,1.0495235E0,-6.368613E-1,1.4855348E-1,1.113913E0,-3.5906833E-2,-1.0342661E0,-3.5975766E-1,-6.712041E-1,3.9865136E-1,1.1848239E0,-2.1092258E-2,-3.50639E-1,-4.5879504E-1,2.8998917E-1,-4.576098E-1,-8.9288026E-1,-1.869609E-1,-5.312556E-1,5.6516314E-1,6.5571815E-1,4.1922417E-1,-7.954136E-1,9.943267E-2,-8.504586E-1,-1.24352366E-1,-3.1459853E-1,-3.1040594E-1,-5.615169E-1,1.3099137E-1,-2.8998128E-1,-2.8976558E-2,3.0495387E-1,9.1481584E-1,9.6354705E-1,-1.77226E-1,-2.7319056E-1,-6.269422E-2,-2.765899E-1,-5.5240642E-2,3.374545E-1,-1.08749546E-1,8.0363736E-2,-2.2100784E-1,5.7265937E-2,-2.85279E-1,-1.9565636E-1,1.2541272E-1,2.7873337E-1,2.5454177E-2,-7.1316916E-3,3.4091958E-1,3.1111091E-2,3.521477E-1],"categories":[],"categories_nodes":[],"categories_segments":[],"categories_sizes":[],"default_left":[0,0,0,0,0,0,0,0,0,0,0,0,0,0,0,0,0,0,0,0,0,0,0,0,0,0,0,0,0,0,0,0,0,0,0,0,0,0,0,0,0,0,0,0,0,0,0,0,0,0,0,0,0,0,0],"id":2,"left_children":[1,3,5,7,9,11,-1,13,15,17,19,21,-1,-1,23,-1,25,27,29,31,33,35,-1,37,-1,39,41,-1,43,45,-1,-1,47,49,51,53,-1,-1,-1,-1,-1,-1,-1,-1,-1,-1,-1,-1,-1,-1,-1,-1,-1,-1,-1],"loss_changes":[3.4159317E1,1.6102432E1,1.9136906E0,5.958603E0,1.0157989E1,1.9736309E0,0E0,1.2508831E0,5.037399E0,1.0836258E0,6.1209164E0,1.4790268E0,0E0,0E0,1.8650359E0,0E0,4.2997093E0,3.755989E-1,1.3951048E0,1.333064E0,2.665864E0,3.6341546E0,0E0,1.148324E-1,0E0,5.5794716E-1,6.172306E0,0E0,9.494355E-1,1.2108784E0,0E0,0E0,1.3649708E0,2.6766255E0,2.7951508E0,1.1052113E0,0E0,0E0,0E0,0E0,0E0,0E0,0E0,0E0,0E0,0E0,0E0,0E0,0E0,0E0,0E0,0E0,0E0,0E0,0E0],"parents":[2147483647,0,0,1,1,2,2,3,3,4,4,5,5,7,7,8,8,9,9,10,10,11,11,14,14,16,16,17,17,18,18,19,19,20,20,21,21,23,23,25,25,26,26,28,28,29,29,32,32,33,33,34,34,35,35],"right_children":[2,4,6,8,10,12,-1,14,16,18,20,22,-1,-1,24,-1,26,28,30,32,34,36,-1,38,-1,40,42,-1,44,46,-1,-1,48,50,52,54,-1,-1,-1,-1,-1,-1,-1,-1,-1,-1,-1,-1,-1,-1,-1,-1,-1,-1,-1],"split_conditions":[1.55E2,3.1E1,6.1E1,1.05E2,2.79E1,5.43E2,-3.5906833E-2,8.7E1,2.4E1,2.68E1,9.5E1,3E-1,-2.1092258E-2,-3.50639E-1,2.6E1,2.8998917E-1,3.19E-1,1.25E2,5.29E-1,2.94E-1,4.3E1,2.69E-1,4.1922417E-1,1.19E2,9.943267E-2,5E0,3.85E-1,-3.1459853E-1,1.35E2,5E0,1.3099137E-1,-2.8998128E-1,3.7E1,3.3E1,2.05E-1,3E0,-1.77226E-1,-2.7319056E-1,-6.269422E-2,-2.765899E-1,-5.5240642E-2,3.374545E-1,-1.08749546E-1,8.0363736E-2,-2.2100784E-1,5.7265937E-2,-2.85279E-1,-1.9565636E-1,1.2541272E-1,2.7873337E-1,2.5454177E-2,-7.1316916E-3,3.4091958E-1,3.1111091E-2,3.521477E-1],"split_indices":[1,6,6,1,4,3,0,3,2,4,1,5,0,0,6,0,5,1,5,5,6,5,0,3,0,0,5,0,1,0,0,0,6,6,5,0,0,0,0,0,0,0,0,0,0,0,0,0,0,0,0,0,0,0,0],"split_type":[0,0,0,0,0,0,0,0,0,0,0,0,0,0,0,0,0,0,0,0,0,0,0,0,0,0,0,0,0,0,0,0,0,0,0,0,0,0,0,0,0,0,0,0,0,0,0,0,0,0,0,0,0,0,0],"sum_hessian":[1.2637733E2,1.03729065E2,2.2648264E1,5.648777E1,4.724129E1,2.1510933E1,1.1373304E0,2.2083946E1,3.4403824E1,1.0649888E1,3.65914E1,2.0295156E1,1.2157767E0,1.7063831E1,5.0201154E0,1.7537134E0,3.2650112E1,6.726687E0,3.9232008E0,5.2244234E0,3.1366978E1,6.987847E0,1.3307309E1,3.5158942E0,1.5042211E0,1.4272967E1,1.8377144E1,4.6757975E0,2.0508893E0,2.5132227E0,1.4099782E0,2.3034658E0,2.9209576E0,1.9057026E1,1.2309953E1,5.785932E0,1.2019149E0,2.4764805E0,1.0394136E0,1.2543208E1,1.7297586E0,2.3462875E0,1.6030857E1,1.027975E0,1.0229142E0,1.0309961E0,1.4822266E0,1.0283344E0,1.8926233E0,4.1285343E0,1.4928492E1,2.5215964E0,9.788357E0,1.4303415E0,4.355591E0],"tree_param":{"num_deleted":"0","num_feature":"7","num_nodes":"55","size_leaf_vector":"1"}},{"base_weights":[-3.511976E-2,-5.935682E-1,2.9103264E-1,-7.6949185E-1,5.7464015E-2,1.0171118E-1,1.0318553E0,-8.690345E-1,-3.9963037E-2,-3.3740923E-1,3.0511624E-1,-3.6917108E-1,3.3433792E-1,1.1140195E0,4.7858274E-3,-9.762118E-1,-3.179732E-1,-2.2969101E-1,3.87377E-1,-6.851972E-1,1.5369211E-1,-9.2355365E-1,-1.1430733E-1,5.041715E-1,-2.986942E-1,1.2381496E-1,1.1892862E0,-1.0514282E0,2.5977146E-2,2.4439679E-1,-7.071806E-1,-1.838632E-1,2.8233072E-1,-2.89547E-1,1.0818969E-2,-2.6330814E-1,3.0849743E-1,-8.251681E-2,-3.0627137E-1,1.0751425E-1,-2.3233065E-1,7.7385044E-1,1.5016848E-1,-5.9446687E-1,2.8671294E-1,3.760918E-1,1.0424134E-1,-3.240501E-1,-1.1391656E-1,-5.3656187E-2,-2.6202124E-1,-8.8222384E-2,2.4282819E-1,1.1387763E-1,3.423049E-1,-2.7303537E-2,2.804309E-1,-2.9620045E-1,9.6997514E-2],"categories":[],"categories_nodes":[],"categories_segments":[],"categories_sizes":[],"default_left":[0,0,0,0,0,0,0,0,0,0,0,0,0,0,0,0,0,0,0,0,0,0,0,0,0,0,0,0,0,0,0,0,0,0,0,0,0,0,0,0,0,0,0,0,0,0,0,0,0,0,0,0,0,0,0,0,0,0,0],"id":3,"left_children":[1,3,5,7,9,11,13,15,17,19,-1,21,23,25,-1,27,29,-1,31,33,35,37,39,41,43,-1,45,47,-1,-1,49,-1,-1,-1,-1,-1,-1,-1,-1,51,-1,53,55,57,-1,-1,-1,-1,-1,-1,-1,-1,-1,-1,-1,-1,-1,-1,-1],"loss_changes":[2.1727716E1,5.0792904E0,1.0467527E1,2.4836578E0,4.2395115E0,6.8215036E0,1.2537975E0,1.4890308E0,1.9128749E0,1.4778419E0,0E0,2.8184178E0,4.6071844E0,2.523346E-1,0E0,2.091425E0,3.416754E0,0E0,2.7613962E0,1.0217288E0,4.644709E0,1.21741295E-1,2.326335E0,3.039566E0,4.054466E0,0E0,2.2440529E-1,4.2430878E-2,0E0,0E0,3.119743E-1,0E0,0E0,0E0,0E0,0E0,0E0,0E0,0E0,3.71747E0,0E0,2.2480812E0,3.0246143E0,3.283228E0,0E0,0E0,0E0,0E0,0E0,0E0,0E0,0E0,0E0,0E0,0E0,0E0,0E0,0E0,0E0],"parents":[2147483647,0,0,1,1,2,2,3,3,4,4,5,5,6,6,7,7,8,8,9,9,11,11,12,12,13,13,15,15,16,16,18,18,19,19,20,20,21,21,22,22,23,23,24,24,26,26,27,27,30,30,39,39,41,41,42,42,43,43],"right_children":[2,4,6,8,10,12,14,16,18,20,-1,22,24,26,-1,28,30,-1,32,34,36,38,40,42,44,-1,46,48,-1,-1,50,-1,-1,-1,-1,-1,-1,-1,-1,52,-1,54,56,58,-1,-1,-1,-1,-1,-1,-1,-1,-1,-1,-1,-1,-1,-1,-1],"split_conditions":[1.12E2,6.6E-1,1.66E2,3.82E1,3.7E1,3.01E1,1.441E0,7E0,1.97E-1,3.27E1,3.0511624E-1,2.7E1,1.96E2,2.68E1,4.7858274E-3,4.3E1,3.3E1,-2.2969101E-1,2.6E1,3E0,7.3E1,5.5E1,5.5E1,7.8E1,4.2E1,1.2381496E-1,9E0,8.2E1,2.5977146E-2,2.4439679E-1,7.4E1,-1.838632E-1,2.8233072E-1,-2.89547E-1,1.0818969E-2,-2.6330814E-1,3.0849743E-1,-8.251681E-2,-3.0627137E-1,4.1E1,-2.3233065E-1,3.2E1,9.2E1,4.2E1,2.8671294E-1,3.760918E-1,1.0424134E-1,-3.240501E-1,-1.1391656E-1,-5.3656187E-2,-2.6202124E-1,-8.8222384E-2,2.4282819E-1,1.1387763E-1,3.423049E-1,-2.7303537E-2,2.804309E-1,-2.9620045E-1,9.6997514E-2],"split_indices":[1,5,1,4,6,4,5,0,5,4,0,6,3,4,0,6,6,0,6,0,3,2,6,2,6,0,0,2,0,0,2,0,0,0,0,0,0,0,0,6,0,6,2,4,0,0,0,0,0,0,0,0,0,0,0,0,0,0,0],"split_type":[0,0,0,0,0,0,0,0,0,0,0,0,0,0,0,0,0,0,0,0,0,0,0,0,0,0,0,0,0,0,0,0,0,0,0,0,0,0,0,0,0,0,0,0,0,0,0,0,0,0,0,0,0,0,0,0,0,0,0],"sum_hessian":[1.1734331E2,4.2962185E1,7.438112E1,3.3679317E1,9.282869E0,6.0147404E1,1.4233717E1,2.9467333E1,4.2119827E0,7.035946E0,2.246924E0,1.9694632E1,4.045277E1,1.30793085E1,1.1544085E0,2.4023443E1,5.4438896E0,1.2676798E0,2.9443028E0,3.8876007E0,3.1483452E0,5.3763084E0,1.4318324E1,3.205613E1,8.396644E0,1.8960559E0,1.1183252E1,2.2445627E1,1.5778159E0,1.1127042E0,4.3311853E0,1.0110706E0,1.9332323E0,2.556957E0,1.3306434E0,1.4431049E0,1.7052404E0,1.2010418E0,4.1752667E0,1.1343665E1,2.9746587E0,1.752194E1,1.4534187E1,7.2202873E0,1.1763567E0,9.934586E0,1.248667E0,2.0941557E1,1.5040703E0,1.5333986E0,2.797787E0,7.585039E0,3.758626E0,9.429981E0,8.091959E0,1.1793087E1,2.7411003E0,5.0029593E0,2.2173276E0],"tree_param":{"num_deleted":"0","num_feature":"7","num_nodes":"59","size_leaf_vector":"1"}},{"base_weights":[-2.9316083E-2,-3.390751E-1,3.857976E-1,-9.3795633E-1,-1.7351715E-1,1.9099663E-1,8.7345123E-1,-2.9643455E-1,-4.7784433E-2,-7.3644525E-1,-1.4497794E-3,-8.610605E-2,5.1989865E-1,9.5437264E-1,4.0187472E-3,-9.3459225E-1,-2.0342031E-1,2.2064136E-1,-2.5459716E-1,4.3023158E-2,-3.005274E-1,7.179876E-1,-3.2188374E-1,4.6086738E-1,1.0782459E0,-3.022624E-1,-7.1602054E-2,9.5475726E-2,-2.2122641E-1,3.6675122E-1,-4.9652007E-1,-6.1252034E-1,3.8926864E-1,-2.680909E-1,4.2916015E-1,8.3472294E-1,-2.7997393E-2,6.0950823E-2,-2.4006832E-1,-4.4864625E-2,2.7024785E-1,3.6546323E-1,1.4140213E-1,-6.432824E-2,2.0868671E-1,-2.9405144E-1,1.13497324E-1,-3.115439E-1,1.948918E-2,-2.4291152E-1,2.634536E-1,-1.2171363E-2,-2.150026E-1,-9.7324856E-2,1.9964296E-1,9.068408E-2,3.0474344E-1],"categories":[],"categories_nodes":[],"categories_segments":[],"categories_sizes":[],"default_left":[0,0,0,0,0,0,0,0,0,0,0,0,0,0,0,0,0,0,0,0,0,0,0,0,0,0,0,0,0,0,0,0,0,0,0,0,0,0,0,0,0,0,0,0,0,0,0,0,0,0,0,0,0,0,0,0,0],"id":4,"left_children":[1,3,5,7,9,11,13,-1,-1,15,17,19,21,23,-1,25,27,29,31,33,-1,35,37,39,41,-1,-1,-1,-1,43,45,47,49,51,53,55,-1,-1,-1,-1,-1,-1,-1,-1,-1,-1,-1,-1,-1,-1,-1,-1,-1,-1,-1,-1,-1],"loss_changes":[1.4249078E1,6.1242986E0,4.334738E0,3.701191E-1,4.9295564E0,3.2474837E0,9.091253E-1,0E0,0E0,1.0683112E0,2.3044205E0,2.3995888E0,2.9341912E0,2.42342E-1,0E0,1.8636274E-1,1.4902612E0,2.470252E0,4.652123E0,2.3285847E0,0E0,1.3500409E0,1.1115692E0,1.2553778E0,1.8353176E-1,0E0,0E0,0E0,0E0,3.7264082E0,2.1143904E0,3.7318435E0,5.0806255E0,1.0751964E0,1.748481E0,8.3484554E-1,0E0,0E0,0E0,0E0,0E0,0E0,0E0,0E0,0E0,0E0,0E0,0E0,0E0,0E0,0E0,0E0,0E0,0E0,0E0,0E0,0E0],"parents":[2147483647,0,0,1,1,2,2,3,3,4,4,5,5,6,6,9,9,10,10,11,11,12,12,13,13,15,15,16,16,17,17,18,18,19,19,21,21,22,22,23,23,24,24,29,29,30,30,31,31,32,32,33,33,34,34,35,35],"right_children":[2,4,6,8,10,12,14,-1,-1,16,18,20,22,24,-1,26,28,30,32,34,-1,36,38,40,42,-1,-1,-1,-1,44,46,48,50,52,54,56,-1,-1,-1,-1,-1,-1,-1,-1,-1,-1,-1,-1,-1,-1,-1,-1,-1,-1,-1,-1,-1],"split_conditions":[1.28E2,2.65E1,1.67E2,1.23E2,2.5E1,3.4E1,1.441E0,-2.9643455E-1,-4.7784433E-2,1.13E2,1.4E1,3.31E1,2.55E2,7E1,4.0187472E-3,1.4E2,1.4E1,8.6E1,1.42E2,3E1,-3.005274E-1,1.095E0,8.2E1,3.5E1,8E0,-3.022624E-1,-7.1602054E-2,9.5475726E-2,-2.2122641E-1,1.02E2,3.69E1,4.96E-1,2.9E1,5.4E1,2.5E1,3.05E-1,-2.7997393E-2,6.0950823E-2,-2.4006832E-1,-4.4864625E-2,2.7024785E-1,3.6546323E-1,1.4140213E-1,-6.432824E-2,2.0868671E-1,-2.9405144E-1,1.13497324E-1,-3.115439E-1,1.948918E-2,-2.4291152E-1,2.634536E-1,-1.2171363E-2,-2.150026E-1,-9.7324856E-2,1.9964296E-1,9.068408E-2,3.0474344E-1],"split_indices":[1,4,1,1,6,4,5,0,0,1,3,4,3,2,0,3,3,2,3,4,0,5,2,6,0,0,0,0,0,1,4,5,6,6,6,5,0,0,0,0,0,0,0,0,0,0,0,0,0,0,0,0,0,0,0,0,0],"split_type":[0,0,0,0,0,0,0,0,0,0,0,0,0,0,0,0,0,0,0,0,0,0,0,0,0,0,0,0,0,0,0,0,0,0,0,0,0,0,0,0,0,0,0,0,0,0,0,0,0,0,0,0,0,0,0,0,0],"sum_hessian":[1.0879696E2,6.240978E1,4.6387177E1,1.2505947E1,4.9903835E1,3.414077E1,1.22464075E1,1.1496428E1,1.0095191E0,1.0914957E1,3.8988876E1,1.8930159E1,1.5210612E1,1.1093017E1,1.1533909E0,7.4078016E0,3.5071554E0,2.0836775E1,1.8152103E1,1.7425722E1,1.5044371E0,1.2432135E1,2.7784774E0,3.1728814E0,7.9201355E0,6.2996593E0,1.1081423E0,1.9784267E0,1.5287286E0,1.771603E1,3.120743E0,1.1697936E1,6.454167E0,9.819651E0,7.6060705E0,1.0843122E1,1.5890132E0,1.5988111E0,1.1796663E0,1.6054715E0,1.5674099E0,5.6173997E0,2.3027358E0,6.527922E0,1.1188108E1,1.9321648E0,1.1885781E0,6.85506E0,4.842876E0,1.6794474E0,4.7747197E0,7.2386746E0,2.5809758E0,1.7267923E0,5.879278E0,3.4293299E0,7.413791E0],"tree_param":{"num_deleted":"0","num_feature":"7","num_nodes":"57","size_leaf_vector":"1"}},{"base_weights":[-3.3586707E-2,-1.7718433E-1,6.080519E-1,-7.916927E-1,-5.6278735E-2,2.4518138E-1,7.9109925E-1,-8.895744E-1,-2.0491727E-2,-4.9156412E-1,6.3415274E-2,5.1646316E-1,-1.6013896E-1,9.438528E-1,3.976291E-3,-9.4669855E-1,-8.9799844E-2,-8.47068E-1,-1.2955962E-1,1.072451E-1,-2.2843334E-1,-7.336496E-2,7.1945983E-1,3.4715372E-1,2.5158712E-1,-3.0223486E-1,-5.7304777E-2,-9.131206E-1,-6.2347807E-2,4.8825192E-1,-5.244622E-1,-2.034725E-1,2.5304845E-1,2.8856286E-1,-3.7050437E-2,1.3705717E-1,-3.9001193E-2,-7.5337924E-2,-2.999703E-1,9.248435E-3,2.4993578E-1,-2.8319193E-2,-2.563069E-1,-1.6917191E-1,7.963735E-3,2.1504451E-1,2.4691435E-2],"categories":[],"categories_nodes":[],"categories_segments":[],"categories_sizes":[],"default_left":[0,0,0,0,0,0,0,0,0,0,0,0,0,0,0,0,0,0,0,0,0,0,0,0,0,0,0,0,0,0,0,0,0,0,0,0,0,0,0,0,0,0,0,0,0,0,0],"id":5,"left_children":[1,3,5,7,9,11,13,15,-1,17,19,21,-1,23,-1,25,-1,27,29,31,-1,-1,33,-1,35,-1,-1,37,-1,39,41,43,45,-1,-1,-1,-1,-1,-1,-1,-1,-1,-1,-1,-1,-1,-1],"loss_changes":[9.490127E0,6.195134E0,1.0579329E0,9.114504E-1,3.7434716E0,1.9173912E0,1.4226723E0,1.2159634E-1,0E0,1.8826139E0,2.1341124E0,1.1446013E0,0E0,1.1977406E0,0E0,2.8908157E-1,0E0,1.3240623E-1,2.4155257E0,2.5333462E0,0E0,0E0,1.1821399E0,0E0,3.4551054E-1,0E0,0E0,1.2926197E-1,0E0,6.004797E-1,7.538357E-1,1.5114925E0,2.928815E0,0E0,0E0,0E0,0E0,0E0,0E0,0E0,0E0,0E0,0E0,0E0,0E0,0E0,0E0],"parents":[2147483647,0,0,1,1,2,2,3,3,4,4,5,5,6,6,7,7,9,9,10,10,11,11,13,13,15,15,17,17,18,18,19,19,22,22,24,24,27,27,29,29,30,30,31,31,32,32],"right_children":[2,4,6,8,10,12,14,16,-1,18,20,22,-1,24,-1,26,-1,28,30,32,-1,-1,34,-1,36,-1,-1,38,-1,40,42,44,46,-1,-1,-1,-1,-1,-1,-1,-1,-1,-1,-1,-1,-1,-1],"split_conditions":[1.55E2,2.64E1,3.05E-1,5.2E1,2.5E1,2.69E-1,3.3E2,6.74E-1,-2.0491727E-2,3.29E1,1.5E2,2E0,-1.6013896E-1,4.4E1,3.976291E-3,1.31E2,-8.9799844E-2,7.19E-1,1.4E1,1.07E2,-2.2843334E-1,-7.336496E-2,9E0,3.4715372E-1,1.78E2,-3.0223486E-1,-5.7304777E-2,5.8E1,-6.2347807E-2,7.2E1,7E1,2.87E-1,6.8E1,2.8856286E-1,-3.7050437E-2,1.3705717E-1,-3.9001193E-2,-7.5337924E-2,-2.999703E-1,9.248435E-3,2.4993578E-1,-2.8319193E-2,-2.563069E-1,-1.6917191E-1,7.963735E-3,2.1504451E-1,2.4691435E-2],"split_indices":[1,4,5,6,6,5,3,5,0,4,1,0,0,6,0,1,0,5,3,1,0,0,0,0,1,0,0,2,0,2,2,5,2,0,0,0,0,0,0,0,0,0,0,0,0,0,0],"split_type":[0,0,0,0,0,0,0,0,0,0,0,0,0,0,0,0,0,0,0,0,0,0,0,0,0,0,0,0,0,0,0,0,0,0,0,0,0,0,0,0,0,0,0,0,0,0,0],"sum_hessian":[1.0082999E2,8.29825E1,1.7847485E1,1.27306E1,7.02519E1,6.768717E0,1.1078768E1,1.1010967E1,1.7196331E0,1.4481369E1,5.577053E1,5.2703114E0,1.4984052E0,9.08185E0,1.9969176E0,9.488723E0,1.5222448E0,6.6302466E0,7.8511224E0,5.378271E1,1.9878194E0,1.0666933E0,4.203618E0,6.429098E0,2.6527517E0,8.474292E0,1.0144312E0,5.6209893E0,1.0092571E0,2.969327E0,4.8817954E0,1.7050762E1,3.673195E1,3.15519E0,1.0484282E0,1.5966301E0,1.0561216E0,1.1027331E0,4.518256E0,1.7446524E0,1.2246745E0,2.6774693E0,2.2043264E0,6.0768666E0,1.0973896E1,9.023773E0,2.7708176E1],"tree_param":{"num_deleted":"0","num_feature":"7","num_nodes":"47","size_leaf_vector":"1"}},{"base_weights":[-3.389619E-2,-2.5871223E-1,2.5511104E-1,-4.356481E-1,6.912531E-2,1.0612849E-1,6.521642E-1,-5.4027414E-1,6.3814944E-1,-7.934229E-2,6.6788226E-1,4.2886978E-1,-1.2982097E-1,7.3275346E-1,-1.690065E-2,-6.218951E-1,1.7644268E-1,2.5938213E-1,2.6210284E-2,1.846754E-1,-3.0455545E-1,2.9797614E-1,-1.4069285E-2,6.4383876E-1,-6.27623E-3,-3.9491737E-1,4.4021747E-1,4.8233192E-2,8.264478E-1,-9.123506E-1,-3.6101237E-1,4.8975715E-1,-1.9667722E-1,-1.3482655E-2,8.190195E-1,-6.513668E-1,2.9437888E-1,-8.4063846E-1,-7.3763244E-2,-3.141547E-2,2.6894423E-1,2.962975E-1,3.0675977E-1,-2.8969204E-1,-8.5962735E-2,-1.8837534E-1,1.5325823E-2,2.3598912E-1,-1.1148514E-1,-1.539723E-1,2.2161871E-1,3.0310553E-1,8.643244E-3,1.7929416E-2,-2.8394237E-1,-2.9960266E-1,-1.6810728E-2,-2.585654E-1,7.342248E-2,1.3086812E-1,-2.0772587E-1,-6.807283E-2,2.2624628E-1],"categories":[],"categories_nodes":[],"categories_segments":[],"categories_sizes":[],"default_left":[0,0,0,0,0,0,0,0,0,0,0,0,0,0,0,0,0,0,0,0,0,0,0,0,0,0,0,0,0,0,0,0,0,0,0,0,0,0,0,0,0,0,0,0,0,0,0,0,0,0,0,0,0,0,0,0,0,0,0,0,0,0,0],"id":6,"left_children":[1,3,5,7,9,11,13,15,17,19,21,23,25,27,-1,29,-1,-1,-1,31,-1,-1,-1,33,35,37,39,-1,41,43,45,47,49,-1,51,53,-1,55,57,59,-1,61,-1,-1,-1,-1,-1,-1,-1,-1,-1,-1,-1,-1,-1,-1,-1,-1,-1,-1,-1,-1,-1],"loss_changes":[6.3398E0,3.2093031E0,2.4597206E0,4.359296E0,1.8375387E0,2.5139341E0,6.961975E-1,3.414547E0,3.7735534E-1,4.38281E0,9.9891317E-1,1.3010769E0,3.107876E0,4.228711E-1,0E0,2.0465755E0,0E0,0E0,0E0,1.735558E0,0E0,0E0,0E0,1.1578074E0,4.190864E0,1.9105039E0,1.4561642E0,0E0,5.9820604E-1,1.9625664E-1,2.030992E0,2.3672464E0,2.4447038E0,0E0,1.0985909E0,8.90414E-1,0E0,6.4766216E-1,2.4965417E0,1.609356E0,0E0,1.0691243E0,0E0,0E0,0E0,0E0,0E0,0E0,0E0,0E0,0E0,0E0,0E0,0E0,0E0,0E0,0E0,0E0,0E0,0E0,0E0,0E0,0E0],"parents":[2147483647,0,0,1,1,2,2,3,3,4,4,5,5,6,6,7,7,8,8,9,9,10,10,11,11,12,12,13,13,15,15,19,19,23,23,24,24,25,25,26,26,28,28,29,29,30,30,31,31,32,32,34,34,35,35,37,37,38,38,39,39,41,41],"right_children":[2,4,6,8,10,12,14,16,18,20,22,24,26,28,-1,30,-1,-1,-1,32,-1,-1,-1,34,36,38,40,-1,42,44,46,48,50,-1,52,54,-1,56,58,60,-1,62,-1,-1,-1,-1,-1,-1,-1,-1,-1,-1,-1,-1,-1,-1,-1,-1,-1,-1,-1,-1,-1],"split_conditions":[1.28E2,3.5E1,1.66E2,7E0,1.1E2,7.4E1,1.441E0,4.54E1,8E0,1.4E1,1.82E2,1.4E2,8.6E1,2.68E1,-1.690065E-2,3.1E1,1.7644268E-1,2.5938213E-1,2.6210284E-2,7E0,-3.0455545E-1,2.9797614E-1,-1.4069285E-2,1.31E2,3.4E1,3.1E1,4E1,4.8233192E-2,3E-1,6E0,5.02E-1,8.2E1,6.05E-1,-1.3482655E-2,1.5E2,1.32E2,2.9437888E-1,1.55E2,2.78E1,3.4E1,2.6894423E-1,3.52E1,3.0675977E-1,-2.8969204E-1,-8.5962735E-2,-1.8837534E-1,1.5325823E-2,2.3598912E-1,-1.1148514E-1,-1.539723E-1,2.2161871E-1,3.0310553E-1,8.643244E-3,1.7929416E-2,-2.8394237E-1,-2.9960266E-1,-1.6810728E-2,-2.585654E-1,7.342248E-2,1.3086812E-1,-2.0772587E-1,-6.807283E-2,2.2624628E-1],"split_indices":[1,6,1,0,3,2,5,4,0,3,3,3,2,4,0,4,0,0,0,0,0,0,0,1,4,6,6,0,5,0,5,2,5,0,1,1,0,1,4,6,0,4,0,0,0,0,0,0,0,0,0,0,0,0,0,0,0,0,0,0,0,0,0],"split_type":[0,0,0,0,0,0,0,0,0,0,0,0,0,0,0,0,0,0,0,0,0,0,0,0,0,0,0,0,0,0,0,0,0,0,0,0,0,0,0,0,0,0,0,0,0,0,0,0,0,0,0,0,0,0,0,0,0,0,0,0,0,0,0],"sum_hessian":[9.555941E1,5.3807713E1,4.1751698E1,3.4733162E1,1.907455E1,3.1281517E1,1.047018E1,3.210213E1,2.6310315E0,1.5979714E1,3.094837E0,1.2865682E1,1.8415836E1,9.37013E0,1.10005E0,3.035534E1,1.7467923E0,1.4606812E0,1.1703503E0,1.3089578E1,2.890137E0,1.8590115E0,1.2358254E0,8.290467E0,4.575214E0,1.2779799E1,5.636037E0,1.7011412E0,7.668988E0,1.3181954E1,1.7173384E1,7.114067E0,5.97551E0,1.8317581E0,6.4587092E0,2.9733474E0,1.6018665E0,4.674556E0,8.105244E0,3.229202E0,2.4068348E0,2.7486339E0,4.9203544E0,1.1647137E1,1.5348182E0,1.0104959E1,7.0684266E0,5.355175E0,1.7588922E0,4.8017883E0,1.173722E0,4.9754267E0,1.4832826E0,1.1059009E0,1.8674465E0,3.6637497E0,1.0108061E0,1.8417958E0,6.263448E0,2.0903733E0,1.1388288E0,1.5181767E0,1.2304572E0],"tree_param":{"num_deleted":"0","num_feature":"7","num_nodes":"63","size_leaf_vector":"1"}},{"base_weights":[-2.3116415E-2,-3.8581115E-1,1.063919E-1,-8.482554E-1,-1.6063277E-1,1.9256534E-2,6.1443084E-1,-2.78356E-1,-5.6908976E-2,-3.113495E-1,2.4613933E-1,6.9921635E-2,-3.1554168E-1,7.700671E-1,-5.804957E-2,-4.1914764E-1,1.1148978E-1,-1.2425764E-1,5.800361E-1,-9.125686E-3,7.4174726E-1,3.022641E-1,3.0530113E-1,5.8444962E-2,-4.9694705E-1,3.2563338E-1,-1.3189101E-1,-1.7649157E-1,3.953795E-1,9.338799E-1,-1.1383963E-2,-2.9563105E-2,2.1414013E-1,-1.793794E-1,3.0339906E-2,-8.162224E-2,1.2332574E-1,1.8075344E-1,-1.3402903E-1,3.1131077E-1,8.543427E-2],"categories":[],"categories_nodes":[],"categories_segments":[],"categories_sizes":[],"default_left":[0,0,0,0,0,0,0,0,0,0,0,0,0,0,0,0,0,0,0,0,0,0,0,0,0,0,0,0,0,0,0,0,0,0,0,0,0,0,0,0,0],"id":7,"left_children":[1,3,5,7,9,11,13,-1,-1,15,17,19,-1,21,-1,23,-1,-1,25,27,29,-1,31,-1,33,-1,-1,35,37,39,-1,-1,-1,-1,-1,-1,-1,-1,-1,-1,-1],"loss_changes":[4.2709093E0,2.3535786E0,2.9603536E0,2.2219086E-1,1.1381047E0,3.239568E0,1.3809392E0,0E0,0E0,1.1183769E0,1.3954176E0,3.014998E0,0E0,6.212435E-1,0E0,6.586497E-1,0E0,0E0,2.485188E0,3.5678763E0,9.305904E-1,0E0,7.7652264E-1,0E0,7.0798516E-1,0E0,0E0,2.2033033E0,2.960817E0,3.0193806E-2,0E0,0E0,0E0,0E0,0E0,0E0,0E0,0E0,0E0,0E0,0E0],"parents":[2147483647,0,0,1,1,2,2,3,3,4,4,5,5,6,6,9,9,10,10,11,11,13,13,15,15,18,18,19,19,20,20,22,22,24,24,27,27,28,28,29,29],"right_children":[2,4,6,8,10,12,14,-1,-1,16,18,20,-1,22,-1,24,-1,-1,26,28,30,-1,32,-1,34,-1,-1,36,38,40,-1,-1,-1,-1,-1,-1,-1,-1,-1,-1,-1],"split_conditions":[1.07E2,2.6E1,4.09E1,1.19E2,3.82E1,4E1,2.55E2,-2.78356E-1,-5.6908976E-2,1.55E2,2.87E-1,9.05E-1,-3.1554168E-1,3E0,-5.804957E-2,5.6E1,1.1148978E-1,-1.2425764E-1,8.74E-1,4.2E1,1.391E0,3.022641E-1,7E0,5.8444962E-2,5.1E1,3.2563338E-1,-1.3189101E-1,1.6E2,6.1E1,1.25E2,-1.1383963E-2,-2.9563105E-2,2.1414013E-1,-1.793794E-1,3.0339906E-2,-8.162224E-2,1.2332574E-1,1.8075344E-1,-1.3402903E-1,3.1131077E-1,8.543427E-2],"split_indices":[1,6,4,3,4,4,3,0,0,3,5,5,0,0,0,2,0,0,5,6,5,0,0,0,6,0,0,1,6,3,0,0,0,0,0,0,0,0,0,0,0],"split_type":[0,0,0,0,0,0,0,0,0,0,0,0,0,0,0,0,0,0,0,0,0,0,0,0,0,0,0,0,0,0,0,0,0,0,0,0,0,0,0,0,0],"sum_hessian":[8.905075E1,2.291028E1,6.614047E1,6.5963836E0,1.6313896E1,5.734325E1,8.797218E0,5.5202537E0,1.0761299E0,1.2074611E1,4.239286E0,5.5645725E1,1.6975262E0,7.4155755E0,1.3816429E0,1.0762253E1,1.3123572E0,1.3429397E0,2.896346E0,5.0670254E1,4.97547E0,4.1349144E0,3.280661E0,1.0412226E0,9.72103E0,1.8933768E0,1.0029691E0,3.6239628E1,1.4430627E1,3.8331506E0,1.1423193E0,2.0312862E0,1.249375E0,8.316979E0,1.4040515E0,3.1631083E1,4.6085453E0,1.1810329E1,2.6202974E0,2.788458E0,1.0446924E0],"tree_param":{"num_deleted":"0","num_feature":"7","num_nodes":"41","size_leaf_vector":"1"}},{"base_weights":[-1.4143775E-2,-3.195468E-1,1.055265E-1,-2.66727E-1,-1.4636472E-1,3.433383E-2,5.7147807E-1,-6.142446E-1,2.5059924E-2,3.030598E-1,-7.624038E-2,6.7551243E-1,-1.9291772E-2,-2.9002616E-1,8.443552E-2,1.4736126E-1,-2.1621129E-1,5.2416317E-2,7.0366E-1,-2.117359E-1,2.9398066E-1,1.8960783E-1,2.7015233E-1,-2.0281386E-1,3.9273632E-1,6.6329724E-1,-1.9430624E-1,-6.54162E-2,9.6943426E-1,-2.7898303E-1,2.387241E-1,2.579547E-2,7.7714E-1,-8.340956E-2,1.978134E-1,2.1598688E-1,-1.8682013E-1,1.7261346E-1,-7.189788E-2,2.7054048E-1,2.9834464E-2,2.1461332E-2,-2.1203232E-1,3.3012414E-1,7.8923345E-2,-5.298313E-2,-2.39269E-1,1.6647774E-1,-8.377519E-2,2.8178418E-1,4.8924524E-2],"categories":[],"categories_nodes":[],"categories_segments":[],"categories_sizes":[],"default_left":[0,0,0,0,0,0,0,0,0,0,0,0,0,0,0,0,0,0,0,0,0,0,0,0,0,0,0,0,0,0,0,0,0,0,0,0,0,0,0,0,0,0,0,0,0,0,0,0,0,0,0],"id":8,"left_children":[1,3,5,-1,7,9,11,13,15,17,19,21,-1,-1,-1,23,-1,25,27,29,31,33,-1,35,37,39,41,-1,43,45,-1,47,49,-1,-1,-1,-1,-1,-1,-1,-1,-1,-1,-1,-1,-1,-1,-1,-1,-1,-1],"loss_changes":[3.1578536E0,2.2680335E0,2.0426185E0,0E0,1.6067989E0,1.6571387E0,5.84208E-1,1.9643197E0,1.5182778E0,1.5929652E0,2.0567114E0,6.0688853E-1,0E0,0E0,0E0,1.2938406E0,0E0,1.7966492E0,1.7220609E0,2.2333794E0,1.4145361E0,9.561554E-1,0E0,2.9598882E0,1.1369094E0,3.6889255E-1,1.229756E0,0E0,1.7034245E-1,1.375926E0,0E0,1.4710724E0,2.3685956E-1,0E0,0E0,0E0,0E0,0E0,0E0,0E0,0E0,0E0,0E0,0E0,0E0,0E0,0E0,0E0,0E0,0E0,0E0],"parents":[2147483647,0,0,1,1,2,2,4,4,5,5,6,6,7,7,8,8,9,9,10,10,11,11,15,15,17,17,18,18,19,19,20,20,21,21,23,23,24,24,25,25,26,26,28,28,29,29,31,31,32,32],"right_children":[2,4,6,-1,8,10,12,14,16,18,20,22,-1,-1,-1,24,-1,26,28,30,32,34,-1,36,38,40,42,-1,44,46,-1,48,50,-1,-1,-1,-1,-1,-1,-1,-1,-1,-1,-1,-1,-1,-1,-1,-1,-1,-1],"split_conditions":[2.97E1,1.05E2,1.66E2,-2.66727E-1,2E0,6.8E1,1.441E0,3.3E1,6.1E1,4E0,4.3E1,3E-1,-1.9291772E-2,-2.9002616E-1,8.443552E-2,1.23E2,-2.1621129E-1,1E0,1E2,1.182E0,1.1E2,7.2E1,2.7015233E-1,1.1E2,1.35E2,6.4E1,2.9E1,-6.54162E-2,1.3E2,2.25E2,2.387241E-1,7.8E1,4.8E1,-8.340956E-2,1.978134E-1,2.1598688E-1,-1.8682013E-1,1.7261346E-1,-7.189788E-2,2.7054048E-1,2.9834464E-2,2.1461332E-2,-2.1203232E-1,3.3012414E-1,7.8923345E-2,-5.298313E-2,-2.39269E-1,1.6647774E-1,-8.377519E-2,2.8178418E-1,4.8924524E-2],"split_indices":[4,1,1,0,0,2,5,6,6,0,6,5,0,0,0,1,0,0,1,5,3,2,0,1,3,2,6,0,1,3,0,2,6,0,0,0,0,0,0,0,0,0,0,0,0,0,0,0,0,0,0],"split_type":[0,0,0,0,0,0,0,0,0,0,0,0,0,0,0,0,0,0,0,0,0,0,0,0,0,0,0,0,0,0,0,0,0,0,0,0,0,0,0,0,0,0,0,0,0,0,0,0,0,0,0],"sum_hessian":[8.448106E1,2.3313614E1,6.1167442E1,4.4721684E0,1.8841446E1,5.399174E1,7.1757045E0,4.359532E0,1.44819145E1,1.52322855E1,3.8759453E1,6.1129456E0,1.0627589E0,3.0714164E0,1.2881155E0,1.3130917E1,1.3509979E0,1.006547E1,5.166816E0,2.8688107E1,1.0071347E1,2.517917E0,3.5950286E0,5.4815874E0,7.649329E0,2.4099758E0,7.6554937E0,1.196582E0,3.9702342E0,2.7570902E1,1.1172047E0,7.153869E0,2.9174783E0,1.4663603E0,1.0515567E0,1.4908812E0,3.9907064E0,6.0051475E0,1.6441816E0,1.2723947E0,1.1375812E0,5.607168E0,2.0483258E0,2.8785853E0,1.0916489E0,2.4145014E1,3.4258878E0,2.3165123E0,4.8373566E0,1.8890512E0,1.028427E0],"tree_param":{"num_deleted":"0","num_feature":"7","num_nodes":"51","size_leaf_vector":"1"}},{"base_weights":[-4.0156967E-3,-2.7778137E-1,9.886608E-2,-2.5032264E-1,-1.298658E-1,5.781042E-2,7.206982E-1,-5.084427E-1,2.6434429E-2,-2.4205133E-2,3.9468592E-1,2.548314E-1,7.135956E-2,-2.206686E-1,2.3804853E-2,1.4574727E-1,-2.055841E-1,7.0154384E-2,-4.8872218E-1,-1.619701E-1,5.3965175E-1,2.6780924E-1,-1.4864047E-1,-1.03128046E-1,3.8176543E-1,1.08066425E-2,-7.9066056E-1,9.222159E-1,1.4925148E-1,-6.618216E-2,1.21151425E-1,2.0794816E-2,-1.9187042E-1,3.40432E-1,3.9816342E-2,-9.428069E-2,1.1601865E-1,-9.670522E-2,-3.1183568E-1,1.006717E-1,3.5732773E-1,-9.972647E-2,1.3957834E-1],"categories":[],"categories_nodes":[],"categories_segments":[],"categories_sizes":[],"default_left":[0,0,0,0,0,0,0,0,0,0,0,0,0,0,0,0,0,0,0,0,0,0,0,0,0,0,0,0,0,0,0,0,0,0,0,0,0,0,0,0,0,0,0],"id":9,"left_children":[1,3,5,-1,7,9,11,13,15,17,19,-1,-1,-1,-1,21,-1,23,25,-1,27,29,-1,31,33,35,37,39,41,-1,-1,-1,-1,-1,-1,-1,-1,-1,-1,-1,-1,-1,-1],"loss_changes":[2.3270648E0,1.7494385E0,1.492209E0,0E0,1.13837E0,1.596783E0,2.3832917E-2,8.0660725E-1,1.3232256E0,2.1006072E0,1.8230791E0,0E0,0E0,0E0,0E0,1.162909E0,0E0,2.2023358E0,1.227969E0,0E0,1.3988409E0,8.6687887E-1,0E0,2.4984856E0,2.5737948E0,6.143048E-1,2.5361323E-1,3.8942528E-1,1.1112832E0,0E0,0E0,0E0,0E0,0E0,0E0,0E0,0E0,0E0,0E0,0E0,0E0,0E0,0E0],"parents":[2147483647,0,0,1,1,2,2,4,4,5,5,6,6,7,7,8,8,9,9,10,10,15,15,17,17,18,18,20,20,21,21,23,23,24,24,25,25,26,26,27,27,28,28],"right_children":[2,4,6,-1,8,10,12,14,16,18,20,-1,-1,-1,-1,22,-1,24,26,-1,28,30,-1,32,34,36,38,40,42,-1,-1,-1,-1,-1,-1,-1,-1,-1,-1,-1,-1,-1,-1],"split_conditions":[2.97E1,1.05E2,5.3E1,-2.5032264E-1,2.8E1,4.09E1,6.1E1,3E0,6.3E1,3.85E1,1.97E-1,2.548314E-1,7.135956E-2,-2.206686E-1,2.3804853E-2,1E1,-2.055841E-1,5.02E-1,7.5E1,-1.619701E-1,1.8E1,2.12E-1,-1.4864047E-1,3.85E-1,5.51E-1,3.1E1,3.95E1,8E1,1.42E2,-6.618216E-2,1.21151425E-1,2.0794816E-2,-1.9187042E-1,3.40432E-1,3.9816342E-2,-9.428069E-2,1.1601865E-1,-9.670522E-2,-3.1183568E-1,1.006717E-1,3.5732773E-1,-9.972647E-2,1.3957834E-1],"split_indices":[4,1,6,0,6,4,6,0,6,4,5,0,0,0,0,0,0,5,2,0,3,5,0,5,5,6,4,2,3,0,0,0,0,0,0,0,0,0,0,0,0,0,0],"split_type":[0,0,0,0,0,0,0,0,0,0,0,0,0,0,0,0,0,0,0,0,0,0,0,0,0,0,0,0,0,0,0,0,0,0,0,0,0,0,0,0,0,0,0],"sum_hessian":[8.064604E1,2.156422E1,5.9081825E1,3.5529287E0,1.8011293E1,5.644789E1,2.6339314E0,4.6048455E0,1.3406447E1,4.6142265E1,1.0305626E1,1.4800267E0,1.1539046E0,3.1401234E0,1.4647218E0,1.2162693E1,1.2437541E0,3.905734E1,7.0849266E0,1.0180418E0,9.287584E0,1.0706871E1,1.4558218E0,2.5529692E1,1.3527647E1,3.0323675E0,4.052559E0,4.002849E0,5.284735E0,2.1969337E0,8.509938E0,1.9978262E1,5.5514307E0,2.4781685E0,1.1049479E1,1.7141103E0,1.3182573E0,2.2024567E0,1.8501022E0,1.9645604E0,2.0382888E0,2.073024E0,3.2117112E0],"tree_param":{"num_deleted":"0","num_feature":"7","num_nodes":"43","size_leaf_vector":"1"}},{"base_weights":[-8.22322E-3,-8.02823E-2,3.3979434E-1,-5.482694E-1,-1.4471626E-2,4.1106555E-1,-8.413958E-2,-6.5377754E-1,-2.1785522E-2,-3.199001E-1,5.7397965E-2,7.1995616E-2,6.529563E-1,-2.0153481E-1,-2.5152215E-1,1.2996638E-1,-4.3704185E-1,9.502729E-2,-1.8161285E-1,4.060562E-1,-3.7461108E-1,8.345957E-1,2.3618298E-2,-1.1345284E-2,-7.7865414E-2,-2.4092166E-1,-9.31605E-2,-3.6173493E-2,3.0371335E-1,1.903379E-1,-3.9229136E-2,-1.7058012E-1,-6.778866E-3,2.8786916E-1,4.6236854E-2,-1.0278951E-1,1.4536728E-1,1.0687267E-1,-5.117122E-2,1.3180813E-1,-5.228681E-2],"categories":[],"categories_nodes":[],"categories_segments":[],"categories_sizes":[],"default_left":[0,0,0,0,0,0,0,0,0,0,0,0,0,0,0,0,0,0,0,0,0,0,0,0,0,0,0,0,0,0,0,0,0,0,0,0,0,0,0,0,0],"id":10,"left_children":[1,3,5,7,9,11,-1,13,-1,15,17,19,21,23,-1,-1,25,27,-1,29,31,33,-1,-1,-1,-1,35,37,39,-1,-1,-1,-1,-1,-1,-1,-1,-1,-1,-1,-1],"loss_changes":[2.014038E0,2.0384052E0,7.24501E-1,3.6225772E-1,1.3195801E0,1.0000508E0,0E0,3.78546E-1,0E0,1.1989255E0,1.2754478E0,1.1128198E0,6.985111E-1,2.0744234E-2,0E0,0E0,1.2343904E0,1.2998948E0,0E0,5.934808E-1,2.1083534E-1,3.1658936E-1,0E0,0E0,0E0,0E0,1.1019759E0,1.6322529E0,1.2617208E0,0E0,0E0,0E0,0E0,0E0,0E0,0E0,0E0,0E0,0E0,0E0,0E0],"parents":[2147483647,0,0,1,1,2,2,3,3,4,4,5,5,7,7,9,9,10,10,11,11,12,12,13,13,16,16,17,17,19,19,20,20,21,21,26,26,27,27,28,28],"right_children":[2,4,6,8,10,12,-1,14,-1,16,18,20,22,24,-1,-1,26,28,-1,30,32,34,-1,-1,-1,-1,36,38,40,-1,-1,-1,-1,-1,-1,-1,-1,-1,-1,-1,-1],"split_conditions":[1.55E2,2.64E1,5.43E2,1.32E2,2.5E1,3.05E-1,-8.413958E-2,2.3E1,-2.1785522E-2,5E1,1.5E2,2.43E-1,1.83E2,1.12E2,-2.5152215E-1,1.2996638E-1,3.33E1,8.6E1,-1.8161285E-1,8E0,3.16E1,4.8E1,2.3618298E-2,-1.1345284E-2,-7.7865414E-2,-2.4092166E-1,1.3E2,6.8E1,1.92E2,1.903379E-1,-3.9229136E-2,-1.7058012E-1,-6.778866E-3,2.8786916E-1,4.6236854E-2,-1.0278951E-1,1.4536728E-1,1.0687267E-1,-5.117122E-2,1.3180813E-1,-5.228681E-2],"split_indices":[1,4,3,1,6,5,0,4,0,2,1,5,1,1,0,0,4,3,0,0,4,6,0,0,0,0,1,2,3,0,0,0,0,0,0,0,0,0,0,0,0],"split_type":[0,0,0,0,0,0,0,0,0,0,0,0,0,0,0,0,0,0,0,0,0,0,0,0,0,0,0,0,0,0,0,0,0,0,0,0,0,0,0,0,0],"sum_hessian":[7.8223724E1,6.544273E1,1.2780988E1,7.164458E0,5.8278275E1,1.176625E1,1.0147378E0,5.5572643E0,1.6071936E0,1.0443747E1,4.783453E1,5.439324E0,6.3269258E0,2.2173984E0,3.3398662E0,1.0425804E0,9.401166E0,4.6075207E1,1.759321E0,3.1636896E0,2.2756343E0,4.4620686E0,1.864857E0,1.0123855E0,1.2050129E0,3.9070988E0,5.494067E0,2.879713E1,1.7278076E1,2.091797E0,1.0718925E0,1.0704528E0,1.2051816E0,3.4232497E0,1.0388191E0,4.121316E0,1.3727512E0,6.925437E0,2.1871695E1,1.3521734E1,3.7563426E0],"tree_param":{"num_deleted":"0","num_feature":"7","num_nodes":"41","size_leaf_vector":"1"}},{"base_weights":[-1.0044253E-2,-3.1181657E-1,5.616912E-2,-2.1368526E-1,-9.973306E-2,-6.0246433E-3,4.3649536E-1,-3.137547E-1,1.6091864E-1,5.4141488E-2,-4.555005E-1,-3.244756E-2,7.7896404E-1,-6.010631E-2,-2.2881193E-1,-6.226303E-4,5.6908953E-1,-1.3293488E-1,-2.4411236E-1,1.681057E-1,-4.9070275E-1,1.9293083E-2,2.893497E-1,-4.6486664E-1,2.3097856E-1,-1.2316299E-1,2.549843E-1,2.6206532E-1,-5.4661613E-2,-4.8056003E-1,1.6365963E-1,5.078089E-3,-2.3145977E-1,-1.6912346E-1,-4.039129E-2,-6.47948E-2,1.3485026E-1,-7.0222723E-3,-2.0562856E-1,-4.8141178E-2,1.204393E-1,-3.6801983E-2,-2.0064561E-1],"categories":[],"categories_nodes":[],"categories_segments":[],"categories_sizes":[],"default_left":[0,0,0,0,0,0,0,0,0,0,0,0,0,0,0,0,0,0,0,0,0,0,0,0,0,0,0,0,0,0,0,0,0,0,0,0,0,0,0,0,0,0,0],"id":11,"left_children":[1,3,5,-1,7,9,11,13,-1,15,17,19,21,23,-1,25,27,29,-1,-1,31,-1,-1,33,35,37,39,-1,-1,41,-1,-1,-1,-1,-1,-1,-1,-1,-1,-1,-1,-1,-1],"loss_changes":[1.5497515E0,1.1138241E0,1.5101575E0,0E0,1.5683212E0,1.5326401E0,1.4659853E0,9.022276E-1,0E0,1.4124342E0,6.647394E-1,1.5643197E0,6.307173E-1,8.620574E-1,0E0,1.4803114E0,1.2604053E0,1.3742023E0,0E0,0E0,4.7068024E-1,0E0,0E0,2.2429645E-2,5.262478E-1,1.7755692E0,9.964841E-1,0E0,0E0,1.6382515E-1,0E0,0E0,0E0,0E0,0E0,0E0,0E0,0E0,0E0,0E0,0E0,0E0,0E0],"parents":[2147483647,0,0,1,1,2,2,4,4,5,5,6,6,7,7,9,9,10,10,11,11,12,12,13,13,15,15,16,16,17,17,20,20,23,23,24,24,25,25,26,26,29,29],"right_children":[2,4,6,-1,8,10,12,14,-1,16,18,20,22,24,-1,26,28,30,-1,-1,32,-1,-1,34,36,38,40,-1,-1,42,-1,-1,-1,-1,-1,-1,-1,-1,-1,-1,-1,-1,-1],"split_conditions":[1.01E2,2E0,4.09E1,-2.1368526E-1,8.7E1,3.85E1,2.8E1,1.4E1,1.6091864E-1,9.05E-1,6.14E-1,4.42E1,7.2E1,2.95E-1,-2.2881193E-1,4.1E1,1.391E0,3.56E-1,-2.4411236E-1,1.681057E-1,1.32E2,1.9293083E-2,2.893497E-1,9E1,3.2E1,1.92E2,1.23E2,2.6206532E-1,-5.4661613E-2,7.8E1,1.6365963E-1,5.078089E-3,-2.3145977E-1,-1.6912346E-1,-4.039129E-2,-6.47948E-2,1.3485026E-1,-7.0222723E-3,-2.0562856E-1,-4.8141178E-2,1.204393E-1,-3.6801983E-2,-2.0064561E-1],"split_indices":[1,0,4,0,3,4,6,3,0,5,5,4,2,5,0,6,5,5,0,0,3,0,0,1,6,3,1,0,0,2,0,0,0,0,0,0,0,0,0,0,0,0,0],"split_type":[0,0,0,0,0,0,0,0,0,0,0,0,0,0,0,0,0,0,0,0,0,0,0,0,0,0,0,0,0,0,0,0,0,0,0,0,0,0,0,0,0,0,0],"sum_hessian":[7.5683304E1,1.2950622E1,6.2732685E1,3.6673071E0,9.283315E0,5.476179E1,7.970894E0,7.325476E0,1.9578384E0,4.907256E1,5.68923E0,3.7463136E0,4.2245803E0,5.4054117E0,1.9200643E0,4.5258194E1,3.814365E0,3.7149918E0,1.974238E0,1.5362378E0,2.2100759E0,1.1482621E0,3.076318E0,2.0114415E0,3.3939705E0,3.0942314E1,1.4315882E1,2.5985699E0,1.215795E0,2.649281E0,1.0657109E0,1.1218814E0,1.0881946E0,1.0037597E0,1.0076817E0,1.1182814E0,2.2756891E0,2.7164501E1,3.7778118E0,3.706835E0,1.0609046E1,1.4825392E0,1.1667418E0],"tree_param":{"num_deleted":"0","num_feature":"7","num_nodes":"43","size_leaf_vector":"1"}},{"base_weights":[-1.3531532E-2,-6.066382E-2,3.846948E-1,-4.2115986E-1,-1.17257405E-2,4.3751433E-2,6.037733E-1,-2.2382662E-1,-1.631828E-1,5.072874E-1,-4.1646034E-2,-3.9427105E-1,1.9665913E-1,2.3958407E-1,3.6732502E-2,1.0761372E-1,-3.5252294E-1,2.517896E-1,-4.0653072E-2,-3.720787E-1,2.7187916E-2,-1.8029293E-1,-1.327291E-3,-2.0561919E-1,2.4587551E-2,-2.2387752E-1,-6.5637395E-2,1.8308592E-1,5.8188767E-4,8.916101E-2,-7.349741E-2,1.0762166E-1,-1.1253364E-1,1.1913848E-1,-1.1731913E-2],"categories":[],"categories_nodes":[],"categories_segments":[],"categories_sizes":[],"default_left":[0,0,0,0,0,0,0,0,0,0,0,0,0,0,0,0,0,0,0,0,0,0,0,0,0,0,0,0,0,0,0,0,0,0,0],"id":12,"left_children":[1,3,5,7,9,11,13,-1,15,17,19,21,-1,-1,-1,-1,23,-1,-1,25,27,-1,-1,-1,29,-1,31,-1,33,-1,-1,-1,-1,-1,-1],"loss_changes":[1.4170259E0,1.1816455E0,5.707176E-1,5.4973173E-1,9.5672727E-1,1.3854249E0,3.5133588E-1,0E0,6.941782E-1,8.3076596E-1,1.3267944E0,2.451539E-1,0E0,0E0,0E0,0E0,6.093762E-1,0E0,0E0,1.1031815E0,7.5735426E-1,0E0,0E0,0E0,3.0639783E-1,0E0,1.0040675E0,0E0,7.664052E-1,0E0,0E0,0E0,0E0,0E0,0E0],"parents":[2147483647,0,0,1,1,2,2,3,3,4,4,5,5,6,6,8,8,9,9,10,10,11,11,16,16,19,19,20,20,24,24,26,26,28,28],"right_children":[2,4,6,8,10,12,14,-1,16,18,20,22,-1,-1,-1,-1,24,-1,-1,26,28,-1,-1,-1,30,-1,32,-1,34,-1,-1,-1,-1,-1,-1],"split_conditions":[1.66E2,2.64E1,7.2E1,3E0,4.4E1,3.8E1,4.4E1,-2.2382662E-1,2.9E1,3E1,2.5E1,1.32E2,1.9665913E-1,2.3958407E-1,3.6732502E-2,1.0761372E-1,4.7E1,2.517896E-1,-4.0653072E-2,3.33E1,2.69E1,-1.8029293E-1,-1.327291E-3,-2.0561919E-1,5.5E1,-2.2387752E-1,1.4E1,1.8308592E-1,2.6E1,8.916101E-2,-7.349741E-2,1.0762166E-1,-1.1253364E-1,1.1913848E-1,-1.1731913E-2],"split_indices":[1,4,2,0,2,6,6,0,6,6,6,3,0,0,0,0,6,0,0,4,4,0,0,0,6,0,3,0,6,0,0,0,0,0,0],"split_type":[0,0,0,0,0,0,0,0,0,0,0,0,0,0,0,0,0,0,0,0,0,0,0,0,0,0,0,0,0,0,0,0,0,0,0],"sum_hessian":[7.325357E1,6.62591E1,6.9944654E0,7.010582E0,5.9248524E1,3.20553E0,3.7889357E0,2.2653017E0,4.7452803E0,2.359787E0,5.6888737E1,2.075234E0,1.1302959E0,2.227914E0,1.5610217E0,1.0251175E0,3.7201626E0,1.3544856E0,1.0053014E0,9.048168E0,4.784057E1,1.0022488E0,1.0729853E0,1.541759E0,2.1784036E0,3.4276278E0,5.6205406E0,1.1303297E0,4.6710236E1,1.0321517E0,1.146252E0,2.3031256E0,3.3174148E0,3.430283E0,4.3279953E1],"tree_param":{"num_deleted":"0","num_feature":"7","num_nodes":"35","size_leaf_vector":"1"}},{"base_weights":[-7.2206496E-3,-2.1441671E-1,6.50291E-2,-2.1302716E-1,-1.1080434E-1,-3.7922274E-2,2.2455947E-1,-5.1465976E-1,2.2871593E-2,2.2712718E-1,-1.3535735E-1,1.3059393E-1,2.0218726E-1,-2.3430699E-1,2.8964171E-2,3.4371752E-1,-2.627966E-1,8.367756E-1,-3.2186887E-1,-4.1483194E-1,1.9042909E-1,5.7757586E-1,-1.478823E-2,5.697121E-1,-1.0278952E-1,9.843343E-2,-4.3411288E-1,1.0308132E0,2.179249E-2,-5.5246013E-1,7.509309E-2,-5.506491E-1,9.944738E-2,-6.049707E-3,1.9903006E-1,2.4126948E-1,-2.9286586E-2,1.9763833E-1,-1.1658425E-1,2.157651E-1,7.6181157E-3,-1.7731273E-1,2.2964457E-2,3.6556125E-1,9.26183E-2,-2.713169E-1,5.542053E-2,6.82423E-2,-1.9789796E-1,1.15760826E-1,-1.1494283E-1,-5.560819E-3,-1.9864607E-1],"categories":[],"categories_nodes":[],"categories_segments":[],"categories_sizes":[],"default_left":[0,0,0,0,0,0,0,0,0,0,0,0,0,0,0,0,0,0,0,0,0,0,0,0,0,0,0,0,0,0,0,0,0,0,0,0,0,0,0,0,0,0,0,0,0,0,0,0,0,0,0,0,0],"id":13,"left_children":[1,3,5,-1,7,9,11,13,15,17,19,21,-1,-1,-1,23,25,27,29,31,33,35,37,39,-1,-1,41,43,-1,45,-1,47,-1,49,-1,-1,-1,-1,51,-1,-1,-1,-1,-1,-1,-1,-1,-1,-1,-1,-1,-1,-1],"loss_changes":[1.099597E0,8.9625585E-1,9.042645E-1,0E0,9.233753E-1,9.088835E-1,8.214098E-1,7.6599216E-1,1.3408908E0,3.4534297E0,2.3998268E0,1.2466102E0,0E0,0E0,0E0,1.2592173E0,9.304763E-1,6.3467145E-1,8.940263E-1,1.6051476E0,1.1615363E0,7.9792035E-1,1.129411E0,4.322505E-1,0E0,0E0,5.6335926E-1,1.3085246E-1,0E0,1.3071642E0,0E0,1.1891222E0,0E0,1.5948237E0,0E0,0E0,0E0,0E0,7.465386E-1,0E0,0E0,0E0,0E0,0E0,0E0,0E0,0E0,0E0,0E0,0E0,0E0,0E0,0E0],"parents":[2147483647,0,0,1,1,2,2,4,4,5,5,6,6,7,7,8,8,9,9,10,10,11,11,15,15,16,16,17,17,18,18,19,19,20,20,21,21,22,22,23,23,26,26,27,27,29,29,31,31,33,33,38,38],"right_children":[2,4,6,-1,8,10,12,14,16,18,20,22,-1,-1,-1,24,26,28,30,32,34,36,38,40,-1,-1,42,44,-1,46,-1,48,-1,50,-1,-1,-1,-1,52,-1,-1,-1,-1,-1,-1,-1,-1,-1,-1,-1,-1,-1,-1],"split_conditions":[2.97E1,1.05E2,1.3E2,-2.1302716E-1,2.12E-1,3.25E1,5E1,4.7E1,4.03E-1,3.85E-1,4.02E-1,1.37E2,2.0218726E-1,-2.3430699E-1,2.8964171E-2,5.5E1,1.13E2,1.2E2,1.24E2,4E1,3.6E1,1.32E2,5.5E1,1.4E2,-1.0278952E-1,9.843343E-2,1.43E2,3.7E1,2.179249E-2,5E0,7.509309E-2,1E0,9.944738E-2,7E1,1.9903006E-1,2.4126948E-1,-2.9286586E-2,1.9763833E-1,1E1,2.157651E-1,7.6181157E-3,-1.7731273E-1,2.2964457E-2,3.6556125E-1,9.26183E-2,-2.713169E-1,5.542053E-2,6.82423E-2,-1.9789796E-1,1.15760826E-1,-1.1494283E-1,-5.560819E-3,-1.9864607E-1],"split_indices":[4,1,1,0,5,4,6,6,5,5,5,1,0,0,0,6,1,1,1,4,6,3,2,1,0,0,1,6,0,0,0,0,0,2,0,0,0,0,0,0,0,0,0,0,0,0,0,0,0,0,0,0,0],"split_type":[0,0,0,0,0,0,0,0,0,0,0,0,0,0,0,0,0,0,0,0,0,0,0,0,0,0,0,0,0,0,0,0,0,0,0,0,0,0,0,0,0,0,0,0,0,0,0,0,0,0,0,0,0],"sum_hessian":[7.152262E1,1.798318E1,5.353944E1,2.0971644E0,1.5886016E1,3.300334E1,2.0536097E1,3.2418466E0,1.2644169E1,8.513442E0,2.44899E1,1.8052137E1,2.4839604E0,2.0643616E0,1.177485E0,5.859695E0,6.784474E0,3.7855153E0,4.7279267E0,1.30347595E1,1.1455141E1,3.7008743E0,1.4351263E1,4.536047E0,1.3236485E0,1.3191595E0,5.4653144E0,2.7405965E0,1.0449189E0,3.3944201E0,1.3335065E0,1.1249703E1,1.7850561E0,8.790791E0,2.6643503E0,2.6276865E0,1.0731876E0,1.165757E0,1.3185506E1,3.306541E0,1.2295058E0,4.060186E0,1.4051284E0,1.629454E0,1.1111424E0,2.1440666E0,1.2503536E0,1.248824E0,1.0000879E1,4.299242E0,4.4915485E0,1.2053297E1,1.1322091E0],"tree_param":{"num_deleted":"0","num_feature":"7","num_nodes":"53","size_leaf_vector":"1"}},{"base_weights":[6.4058245E-6,-2.6714122E-1,5.063315E-2,-5.636609E-2,-6.2705564E-1,5.343145E-1,-1.1160499E-2,3.0506635E-1,-5.509985E-1,5.9210304E-2,-3.0054417E-1,-1.5944938E-1,8.644234E-1,-2.515943E-1,7.3939055E-2,-8.546838E-2,5.2285725E-1,-2.3211502E-1,9.492588E-3,-8.990105E-2,1.7905526E-2,3.0456918E-1,1.01020716E-1,2.7976233E-1,-5.5645037E-1,6.922095E-1,-2.0161323E-2,2.3888968E-1,1.4065816E-1,5.4072547E-1,-5.712584E-2,-7.08159E-1,3.1069566E-2,-1.2685847E-2,2.7586016E-1,-1.8751453E-1,3.729344E-2,1.4202961E-1,-7.827836E-2,2.1253166E-1,3.276663E-2,-2.3934555E-1,-4.905184E-2,-7.937885E-2,4.6863034E-2],"categories":[],"categories_nodes":[],"categories_segments":[],"categories_sizes":[],"default_left":[0,0,0,0,0,0,0,0,0,0,0,0,0,0,0,0,0,0,0,0,0,0,0,0,0,0,0,0,0,0,0,0,0,0,0,0,0,0,0,0,0,0,0,0,0],"id":14,"left_children":[1,3,5,7,9,11,13,15,17,-1,-1,19,21,23,25,-1,27,-1,-1,-1,-1,-1,-1,29,31,33,35,-1,37,39,-1,41,-1,-1,-1,-1,43,-1,-1,-1,-1,-1,-1,-1,-1],"loss_changes":[9.62255E-1,8.245369E-1,1.7936593E0,1.6425196E0,1.4606346E0,1.6942909E0,1.1238148E0,8.439435E-1,5.2257085E-1,0E0,0E0,1.11157015E-1,3.6994457E-2,2.4798322E0,2.3800151E0,0E0,3.377229E-1,0E0,0E0,0E0,0E0,0E0,0E0,8.264263E-1,1.0197306E0,9.4057536E-1,1.2837523E0,0E0,5.256795E-1,2.1587086E-1,0E0,2.510717E-1,0E0,0E0,0E0,0E0,1.2642759E0,0E0,0E0,0E0,0E0,0E0,0E0,0E0,0E0],"parents":[2147483647,0,0,1,1,2,2,3,3,4,4,5,5,6,6,7,7,8,8,11,11,12,12,13,13,14,14,16,16,23,23,24,24,25,25,26,26,28,28,29,29,31,31,36,36],"right_children":[2,4,6,8,10,12,14,16,18,-1,-1,20,22,24,26,-1,28,-1,-1,-1,-1,-1,-1,30,32,34,36,-1,38,40,-1,42,-1,-1,-1,-1,44,-1,-1,-1,-1,-1,-1,-1,-1],"split_conditions":[2.03E-1,1.81E-1,2.43E-1,1.4E1,2.8E1,1.21E2,3.19E-1,2.9E1,4E1,5.9210304E-2,-3.0054417E-1,3.51E1,7.6E1,1.16E2,3.74E-1,-8.546838E-2,3.25E1,-2.3211502E-1,9.492588E-3,-8.990105E-2,1.7905526E-2,3.0456918E-1,1.01020716E-1,3.38E1,4.3E1,1.18E2,8.8E1,2.3888968E-1,1.34E-1,7.4E1,-5.712584E-2,1.6E2,3.1069566E-2,-1.2685847E-2,2.7586016E-1,-1.8751453E-1,5.02E-1,1.4202961E-1,-7.827836E-2,2.1253166E-1,3.276663E-2,-2.3934555E-1,-4.905184E-2,-7.937885E-2,4.6863034E-2],"split_indices":[5,5,5,3,6,1,5,4,6,0,0,4,2,1,5,0,4,0,0,0,0,0,0,4,6,1,1,0,5,2,0,1,0,0,0,0,5,0,0,0,0,0,0,0,0],"split_type":[0,0,0,0,0,0,0,0,0,0,0,0,0,0,0,0,0,0,0,0,0,0,0,0,0,0,0,0,0,0,0,0,0,0,0,0,0,0,0,0,0,0,0,0,0],"sum_hessian":[6.914726E1,1.0334962E1,5.8812298E1,7.2473416E0,3.0876203E0,5.7962427E0,5.3016056E1,4.4089375E0,2.8384044E0,1.1128439E0,1.9747765E0,2.0354583E0,3.7607841E0,1.3347781E1,3.9668274E1,1.1056896E0,3.3032477E0,1.816201E0,1.0222034E0,1.0171088E0,1.0183495E0,2.20632E0,1.5544641E0,4.896178E0,8.451604E0,4.4003634E0,3.526791E1,1.2939991E0,2.0092485E0,3.0521307E0,1.8440467E0,6.812716E0,1.6388879E0,1.2324011E0,3.1679626E0,2.202361E0,3.3065548E1,1.0009264E0,1.0083222E0,1.7357146E0,1.3164161E0,5.4506273E0,1.3620887E0,8.997883E0,2.4067667E1],"tree_param":{"num_deleted":"0","num_feature":"7","num_nodes":"45","size_leaf_vector":"1"}},{"base_weights":[-4.2404348E-4,-1.5996028E-1,2.4426071E-2,-1.3044657E-1,9.335501E-2,-5.097774E-1,2.4790358E-2,6.7999953E-1,2.6332134E-2,-6.948507E-1,3.5489086E-2,-1.6739284E-1,4.1658092E-1,-6.9531496E-3,2.7890503E-1,-2.4204433E-1,9.670835E-2,-1.2509885E-2,-2.662857E-1,-4.9408596E-2,-1.9791053E-1,2.396283E-1,6.268488E-2,2.4244481E-1,-5.158668E-1,-2.3697594E-1,1.6922775E-1,-1.7670105E-1,2.2772053E-2,-1.15628906E-1,1.11348145E-1,-1.2496897E-1,2.00171E-1,8.579656E-2,-2.4139474E-1,-1.8186983E-1,1.54391E-2,9.3961544E-2,-3.317137E-2],"categories":[],"categories_nodes":[],"categories_segments":[],"categories_sizes":[],"default_left":[0,0,0,0,0,0,0,0,0,0,0,0,0,0,0,0,0,0,0,0,0,0,0,0,0,0,0,0,0,0,0,0,0,0,0,0,0,0,0],"id":15,"left_children":[1,-1,3,5,7,9,11,13,15,17,-1,19,21,-1,-1,23,25,-1,-1,27,-1,-1,29,31,33,35,37,-1,-1,-1,-1,-1,-1,-1,-1,-1,-1,-1,-1],"loss_changes":[9.1496116E-1,0E0,7.172182E-1,1.235015E0,1.8020091E0,7.8830063E-1,1.2506522E0,8.477223E-1,8.276435E-1,5.720532E-1,0E0,6.20026E-1,6.8679744E-1,0E0,0E0,1.336514E0,8.7372124E-1,0E0,0E0,7.306769E-1,0E0,0E0,6.840825E-1,1.3914641E0,1.655148E0,7.306162E-1,1.1981456E0,0E0,0E0,0E0,0E0,0E0,0E0,0E0,0E0,0E0,0E0,0E0,0E0],"parents":[2147483647,0,0,2,2,3,3,4,4,5,5,6,6,7,7,8,8,9,9,11,11,12,12,15,15,16,16,19,19,22,22,23,23,24,24,25,25,26,26],"right_children":[2,-1,4,6,8,10,12,14,16,18,-1,20,22,-1,-1,24,26,-1,-1,28,-1,-1,30,32,34,36,38,-1,-1,-1,-1,-1,-1,-1,-1,-1,-1,-1,-1],"split_conditions":[2.29E1,-1.5996028E-1,1.12E2,2E0,1.16E2,3.7E1,6.4E-1,3.11E1,1.24E2,6.4E1,3.5489086E-2,5.16E-1,7.27E-1,-6.9531496E-3,2.7890503E-1,2E0,2.03E-1,-1.2509885E-2,-2.662857E-1,1.61E-1,-1.9791053E-1,2.396283E-1,3.27E1,2.9E1,6.4E1,3.8E1,6E0,-1.7670105E-1,2.2772053E-2,-1.15628906E-1,1.11348145E-1,-1.2496897E-1,2.00171E-1,8.579656E-2,-2.4139474E-1,-1.8186983E-1,1.54391E-2,9.3961544E-2,-3.317137E-2],"split_indices":[4,0,1,0,1,6,5,4,1,2,0,5,5,0,0,0,5,0,0,5,0,0,4,6,2,6,0,0,0,0,0,0,0,0,0,0,0,0,0],"split_type":[0,0,0,0,0,0,0,0,0,0,0,0,0,0,0,0,0,0,0,0,0,0,0,0,0,0,0,0,0,0,0,0,0,0,0,0,0,0,0],"sum_hessian":[6.7124374E1,2.0797014E0,6.504467E1,1.9758316E1,4.5286354E1,5.0745287E0,1.4683787E1,3.7056227E0,4.158073E1,3.83744E0,1.2370887E0,1.0235678E1,4.4481096E0,1.2087193E0,2.4969032E0,8.131674E0,3.344906E1,1.151652E0,2.685788E0,9.144512E0,1.0911659E0,1.5342212E0,2.9138887E0,2.9776847E0,5.153989E0,5.5667863E0,2.7882273E1,1.0260938E0,8.118418E0,1.0863339E0,1.8275548E0,1.1746862E0,1.8029985E0,1.3672502E0,3.7867389E0,1.9581807E0,3.6086054E0,1.8330482E1,9.551789E0],"tree_param":{"num_deleted":"0","num_feature":"7","num_nodes":"39","size_leaf_vector":"1"}},{"base_weights":[-8.8778585E-3,-4.2967904E-2,2.8159034E-1,-6.5632775E-2,3.7035686E-1,1.8591364E-1,5.6676272E-2,-2.027737E-1,-3.7263494E-2,1.7542574E-1,-1.7366208E-2,-2.1495634E-1,1.03728585E-1,1.1075756E-2,-2.482901E-1,-1.3539329E-1,2.4708103E-2,6.505316E-2,-4.2999905E-1,-5.003509E-1,4.2186132E-1,6.8573193E-3,1.4699762E-1,-2.0919001E-1,3.6874674E-2,-2.1407297E-1,2.9945228E-2,2.1849327E-1,-1.0828669E-2],"categories":[],"categories_nodes":[],"categories_segments":[],"categories_sizes":[],"default_left":[0,0,0,0,0,0,0,0,0,0,0,0,0,0,0,0,0,0,0,0,0,0,0,0,0,0,0,0,0],"id":16,"left_children":[1,3,5,7,9,-1,11,-1,13,-1,-1,15,-1,17,19,-1,-1,21,23,25,27,-1,-1,-1,-1,-1,-1,-1,-1],"loss_changes":[6.689552E-1,5.8858865E-1,5.04814E-1,9.781715E-1,3.3516952E-1,0E0,4.955637E-1,0E0,5.784605E-1,0E0,0E0,2.748536E-1,0E0,1.1440047E0,1.9950669E0,0E0,0E0,7.532427E-1,8.6052155E-1,1.1118958E0,5.0754017E-1,0E0,0E0,0E0,0E0,0E0,0E0,0E0,0E0],"parents":[2147483647,0,0,1,1,2,2,3,3,4,4,6,6,8,8,11,11,13,13,14,14,17,17,18,18,19,19,20,20],"right_children":[2,4,6,8,10,-1,12,-1,14,-1,-1,16,-1,18,20,-1,-1,22,24,26,28,-1,-1,-1,-1,-1,-1,-1,-1],"split_conditions":[1.66E2,9.4E1,1.79E2,2.29E1,2.55E-1,1.8591364E-1,3.8E1,-2.027737E-1,8.4E1,1.7542574E-1,-1.7366208E-2,3.31E-1,1.03728585E-1,1.96E2,7.32E-1,-1.3539329E-1,2.4708103E-2,1.75E2,3.5E1,1.42E2,8.32E-1,6.8573193E-3,1.4699762E-1,-2.0919001E-1,3.6874674E-2,-2.1407297E-1,2.9945228E-2,2.1849327E-1,-1.0828669E-2],"split_indices":[1,2,1,4,5,0,6,0,2,0,0,5,0,3,5,0,0,3,6,1,5,0,0,0,0,0,0,0,0],"split_type":[0,0,0,0,0,0,0,0,0,0,0,0,0,0,0,0,0,0,0,0,0,0,0,0,0,0,0,0,0],"sum_hessian":[6.5335175E1,5.923526E1,6.0999184E0,5.6953396E1,2.281861E0,1.7355192E0,4.364399E0,1.5159882E0,5.543741E1,1.2770536E0,1.0048074E0,2.3823273E0,1.9820716E0,4.5876198E1,9.561212E0,1.0386757E0,1.3436517E0,4.16337E1,4.2424946E0,7.132046E0,2.4291651E0,3.8831608E1,2.8020961E0,2.6838698E0,1.5586247E0,5.123003E0,2.0090435E0,1.1016376E0,1.3275275E0],"tree_param":{"num_deleted":"0","num_feature":"7","num_nodes":"29","size_leaf_vector":"1"}},{"base_weights":[-5.028302E-3,-4.3910857E-2,2.4681538E-1,-9.240617E-3,-1.967128E-1,5.3566355E-1,-4.0233005E-2,-2.6364768E-1,4.8469417E-2,2.2779177E-1,4.5500085E-2,-3.1825358E-1,1.3370897E-1,9.877741E-3,-6.098109E-1,3.6287916E-1,-2.790778E-2,-2.058434E-1,6.1679915E-2,-1.9199888E-1,1.4332055E-1,-2.2856647E-1,-3.4468103E-2,5.4116803E-1,-9.727872E-2,-5.134449E-1,4.084435E-2,-1.8039866E-1,8.412815E-2,-7.89854E-3,2.3635978E-1,-2.4666704E-1,9.268938E-2,-5.089971E-2,5.4814506E-2],"categories":[],"categories_nodes":[],"categories_segments":[],"categories_sizes":[],"default_left":[0,0,0,0,0,0,0,0,0,0,0,0,0,0,0,0,0,0,0,0,0,0,0,0,0,0,0,0,0,0,0,0,0,0,0],"id":17,"left_children":[1,3,5,7,-1,9,11,13,15,-1,-1,17,-1,19,21,23,25,-1,-1,27,-1,-1,-1,29,-1,31,33,-1,-1,-1,-1,-1,-1,-1,-1],"loss_changes":[6.466116E-1,1.2049162E0,7.540405E-1,8.20923E-1,0E0,2.6899183E-1,8.661256E-1,9.843806E-1,1.1078184E0,0E0,0E0,9.1070133E-1,0E0,7.298307E-1,2.5693667E-1,1.2787266E0,1.2796488E0,0E0,0E0,1.2192354E0,0E0,0E0,0E0,1.0742228E0,0E0,1.4604065E0,1.0450745E0,0E0,0E0,0E0,0E0,0E0,0E0,0E0,0E0],"parents":[2147483647,0,0,1,1,2,2,3,3,5,5,6,6,7,7,8,8,11,11,13,13,14,14,15,15,16,16,19,19,23,23,25,25,26,26],"right_children":[2,4,6,8,-1,10,12,14,16,-1,-1,18,-1,20,22,24,26,-1,-1,28,-1,-1,-1,30,-1,32,34,-1,-1,-1,-1,-1,-1,-1,-1],"split_conditions":[4.09E1,3.96E1,4.42E1,6.2E1,-1.967128E-1,1.4E1,4.83E1,4.87E-1,6.8E1,2.2779177E-1,4.5500085E-2,8E1,1.3370897E-1,1.38E2,1.59E2,1.44E2,7E1,-2.058434E-1,6.1679915E-2,3E0,1.4332055E-1,-2.2856647E-1,-3.4468103E-2,1.07E2,-9.727872E-2,3.42E1,1.24E2,-1.8039866E-1,8.412815E-2,-7.89854E-3,2.3635978E-1,-2.4666704E-1,9.268938E-2,-5.089971E-2,5.4814506E-2],"split_indices":[4,4,4,2,0,3,4,5,2,0,0,2,0,1,3,1,2,0,0,0,0,0,0,1,0,4,1,0,0,0,0,0,0,0,0],"split_type":[0,0,0,0,0,0,0,0,0,0,0,0,0,0,0,0,0,0,0,0,0,0,0,0,0,0,0,0,0,0,0,0,0,0,0],"sum_hessian":[6.3925705E1,5.6091316E1,7.834388E0,5.4043793E1,2.0475245E0,3.4732509E0,4.361137E0,9.332816E0,4.4710976E1,1.5772643E0,1.8959866E0,2.9934955E0,1.3676414E0,5.7560573E0,3.5767589E0,8.005378E0,3.67056E1,1.5765291E0,1.4169662E0,4.432913E0,1.3231446E0,2.3234024E0,1.2533565E0,6.5248466E0,1.4805307E0,3.7505608E0,3.295504E1,2.2288713E0,2.2040415E0,2.2476633E0,4.2771835E0,2.7269409E0,1.0236199E0,1.3189025E1,1.9766014E1],"tree_param":{"num_deleted":"0","num_feature":"7","num_nodes":"35","size_leaf_vector":"1"}},{"base_weights":[-7.217175E-3,-1.7416705E-1,5.0200175E-2,-4.8029116E-1,-5.216739E-2,4.6768913E-1,1.3460119E-2,-3.9950497E-2,-1.8986362E-1,2.0216069E-1,-2.2363092E-1,4.3272916E-2,2.0250703E-1,-1.1423236E-1,1.6538216E-1,-1.1039699E-1,2.0367269E-1,-3.8511992E-1,1.1286464E-1,-5.6417957E-2,-2.08865E-1,-8.552024E-3,5.4227424E-1,4.8471253E-2,-9.378144E-2,-5.513746E-1,2.1670667E-2,9.872837E-2,-5.354071E-2,-1.30113E-1,2.5131762E-1,3.043336E-1,-3.0309E-1,-7.5634524E-2,7.481972E-1,-2.0531155E-1,-4.9181465E-2,-5.7133775E-2,1.16814606E-1,1.5228756E-1,-2.5080102E-2,2.4307781E-1,-2.6869098E-2,-3.2863006E-2,-2.338471E-1,2.6277167E-1,3.52128E-2],"categories":[],"categories_nodes":[],"categories_segments":[],"categories_sizes":[],"default_left":[0,0,0,0,0,0,0,0,0,0,0,0,0,0,0,0,0,0,0,0,0,0,0,0,0,0,0,0,0,0,0,0,0,0,0,0,0,0,0,0,0,0,0,0,0,0,0],"id":18,"left_children":[1,3,5,7,9,11,13,-1,-1,15,17,-1,-1,19,21,23,-1,25,27,29,-1,31,33,-1,-1,35,-1,-1,-1,37,39,41,43,-1,45,-1,-1,-1,-1,-1,-1,-1,-1,-1,-1,-1,-1],"loss_changes":[6.182671E-1,5.910176E-1,7.313379E-1,1.5824842E-1,6.0849476E-1,1.6149706E-1,8.963222E-1,0E0,0E0,9.283097E-1,4.88525E-1,0E0,0E0,8.0748737E-1,1.3854668E0,2.880371E-1,0E0,4.7787243E-1,2.7476338E-1,5.76537E-1,0E0,1.511178E0,1.2792152E0,0E0,0E0,1.1148131E-1,0E0,0E0,0E0,7.0119554E-1,4.6943823E-1,1.6598456E0,6.9209653E-1,0E0,3.440187E-1,0E0,0E0,0E0,0E0,0E0,0E0,0E0,0E0,0E0,0E0,0E0,0E0],"parents":[2147483647,0,0,1,1,2,2,3,3,4,4,5,5,6,6,9,9,10,10,13,13,14,14,15,15,17,17,18,18,19,19,21,21,22,22,25,25,29,29,30,30,31,31,32,32,34,34],"right_children":[2,4,6,8,10,12,14,-1,-1,16,18,-1,-1,20,22,24,-1,26,28,30,-1,32,34,-1,-1,36,-1,-1,-1,38,40,42,44,-1,46,-1,-1,-1,-1,-1,-1,-1,-1,-1,-1,-1,-1],"split_conditions":[2.97E1,6.2E1,5.2E1,1.4E1,7.4E1,8.4E1,3.5E1,-3.9950497E-2,-1.8986362E-1,4.2E1,2.79E1,4.3272916E-2,2.0250703E-1,3.4E1,1.1E2,6.5E1,2.0367269E-1,1.51E2,2.88E1,3.1E1,-2.08865E-1,7E0,7E1,4.8471253E-2,-9.378144E-2,8E1,2.1670667E-2,9.872837E-2,-5.354071E-2,1.66E2,3.47E1,7.8E1,1.4E1,-7.5634524E-2,7.22E-1,-2.0531155E-1,-4.9181465E-2,-5.7133775E-2,1.16814606E-1,1.5228756E-1,-2.5080102E-2,2.4307781E-1,-2.6869098E-2,-3.2863006E-2,-2.338471E-1,2.6277167E-1,3.52128E-2],"split_indices":[4,2,2,3,2,3,6,0,0,6,4,0,0,6,3,2,0,1,4,6,0,0,2,0,0,2,0,0,0,1,4,2,3,0,5,0,0,0,0,0,0,0,0,0,0,0,0],"split_type":[0,0,0,0,0,0,0,0,0,0,0,0,0,0,0,0,0,0,0,0,0,0,0,0,0,0,0,0,0,0,0,0,0,0,0,0,0,0,0,0,0,0,0,0,0,0,0],"sum_hessian":[6.2585995E1,1.5495901E1,4.7090096E1,3.5788789E0,1.1917022E1,2.8601074E0,4.422999E1,1.6646608E0,1.9142181E0,4.726814E0,7.1902084E0,1.7795981E0,1.0805093E0,2.4166126E1,2.0063862E1,3.3191838E0,1.4076297E0,4.7608886E0,2.42932E0,2.298021E1,1.1859167E0,1.4397008E1,5.6668525E0,1.5011355E0,1.8180485E0,3.3408682E0,1.4200202E0,1.319996E0,1.1093241E0,1.9005949E1,3.9742615E0,6.9649425E0,7.432066E0,1.120393E0,4.5464597E0,1.9165525E0,1.4243156E0,1.7595814E1,1.410134E0,1.9592259E0,2.0150356E0,2.5861857E0,4.3787565E0,6.159565E0,1.2725008E0,3.4578993E0,1.0885602E0],"tree_param":{"num_deleted":"0","num_feature":"7","num_nodes":"47","size_leaf_vector":"1"}},{"base_weights":[-2.6981272E-3,1.7458348E-2,-1.3160783E-1,-4.4484932E-2,2.2051816E-1,-2.680416E-1,3.5044752E-2,9.356746E-2,2.0161833E-1,-9.080069E-2,-4.951265E-1,-1.8306343E-1,1.1797593E-1,2.4158153E-1,-3.5682416E-1,-3.673134E-1,1.7434387E-1,2.9082983E-3,-6.2929785E-1,1.728309E-2,-3.7290135E-1,4.6659416E-1,9.079574E-3,4.7157067E-1,-1.3944773E-1,-1.5968107E-1,-1.634603E-2,-2.0310506E-1,2.783386E-2,-8.2161546E-2,1.1493491E-1,-3.865809E-2,-2.3218189E-1,9.092015E-2,-9.7037174E-2,-1.7420095E-1,-8.8768285E-3,1.8493226E-1,3.6802704E-3,-9.133816E-2,3.0489936E-2,2.2726545E-2,2.352168E-1,9.7066745E-2,-1.12419106E-1],"categories":[],"categories_nodes":[],"categories_segments":[],"categories_sizes":[],"default_left":[0,0,0,0,0,0,0,0,0,0,0,0,0,0,0,0,0,0,0,0,0,0,0,0,0,0,0,0,0,0,0,0,0,0,0,0,0,0,0,0,0,0,0,0,0],"id":19,"left_children":[1,3,-1,5,7,9,11,13,-1,15,17,19,21,23,25,27,29,-1,31,33,35,37,39,41,43,-1,-1,-1,-1,-1,-1,-1,-1,-1,-1,-1,-1,-1,-1,-1,-1,-1,-1,-1,-1],"loss_changes":[5.4933953E-1,7.629405E-1,0E0,8.399102E-1,7.490264E-1,4.5303637E-1,6.6081536E-1,9.006484E-1,0E0,6.632988E-1,3.5825813E-1,3.916202E-1,9.9086094E-1,9.2381793E-1,1.5270469E-1,6.7879874E-1,5.5883324E-1,0E0,1.9868863E-1,6.709029E-1,3.5689247E-1,4.1582906E-1,6.401451E-1,7.240592E-1,6.0681456E-1,0E0,0E0,0E0,0E0,0E0,0E0,0E0,0E0,0E0,0E0,0E0,0E0,0E0,0E0,0E0,0E0,0E0,0E0,0E0,0E0],"parents":[2147483647,0,0,1,1,3,3,4,4,5,5,6,6,7,7,9,9,10,10,11,11,12,12,13,13,14,14,15,15,16,16,18,18,19,19,20,20,21,21,22,22,23,23,24,24],"right_children":[2,4,-1,6,8,10,12,14,-1,16,18,20,22,24,26,28,30,-1,32,34,36,38,40,42,44,-1,-1,-1,-1,-1,-1,-1,-1,-1,-1,-1,-1,-1,-1,-1,-1,-1,-1,-1,-1],"split_conditions":[6.3E1,4.3E1,-1.3160783E-1,3.05E1,1.7E2,2.85E1,1.08E2,3.2E1,2.0161833E-1,2.64E1,1.08E2,7E1,1.19E2,3.39E1,1.12E2,3.93E-1,1.12E2,2.9082983E-3,3.85E-1,9.6E1,1.01E2,3.59E1,1.24E2,2.79E1,1.06E2,-1.5968107E-1,-1.634603E-2,-2.0310506E-1,2.783386E-2,-8.2161546E-2,1.1493491E-1,-3.865809E-2,-2.3218189E-1,9.092015E-2,-9.7037174E-2,-1.7420095E-1,-8.8768285E-3,1.8493226E-1,3.6802704E-3,-9.133816E-2,3.0489936E-2,2.2726545E-2,2.352168E-1,9.7066745E-2,-1.12419106E-1],"split_indices":[6,6,0,4,3,4,1,3,0,4,1,2,1,4,3,5,1,0,5,1,1,4,1,4,1,0,0,0,0,0,0,0,0,0,0,0,0,0,0,0,0,0,0,0,0],"split_type":[0,0,0,0,0,0,0,0,0,0,0,0,0,0,0,0,0,0,0,0,0,0,0,0,0,0,0,0,0,0,0,0,0,0,0,0,0,0,0,0,0,0,0,0,0],"sum_hessian":[6.0637863E1,5.8875923E1,1.7619365E0,4.571233E1,1.3163594E1,1.1372914E1,3.4339417E1,1.121713E1,1.9464638E0,7.1736755E0,4.1992383E0,9.127298E0,2.5212118E1,8.791547E0,2.4255834E0,3.3229356E0,3.8507402E0,1.0765307E0,3.1227076E0,4.8829784E0,4.24432E0,5.2190905E0,1.9993029E1,5.3342013E0,3.4573452E0,1.05364E0,1.3719435E0,1.7042627E0,1.6186728E0,1.12457E0,2.72617E0,1.1241653E0,1.9985422E0,2.7157774E0,2.1672008E0,2.2134116E0,2.030908E0,3.6563308E0,1.5627595E0,4.0348296E0,1.5958199E1,2.9014509E0,2.4327505E0,1.0385143E0,2.418831E0],"tree_param":{"num_deleted":"0","num_feature":"7","num_nodes":"45","size_leaf_vector":"1"}},{"base_weights":[-8.219647E-3,-4.4891812E-2,2.2945032E-1,-1.785189E-2,-1.827646E-1,-6.290072E-2,4.3661514E-1,2.3886723E-2,-3.232094E-1,8.4566005E-2,-1.3458934E-1,-3.3253726E-2,1.9622867E-1,-8.0897294E-2,2.2896935E-1,-5.360044E-1,1.1278025E-1,3.407752E-3,-4.1552857E-1,-2.768299E-1,3.3680156E-1,-2.493211E-1,-3.390942E-3,2.3416337E-2,-1.3056035E-1,-1.8260556E-1,4.592641E-2,-1.3006133E-1,-3.5982276E-3,1.6680452E-1,-6.409397E-3],"categories":[],"categories_nodes":[],"categories_segments":[],"categories_sizes":[],"default_left":[0,0,0,0,0,0,0,0,0,0,0,0,0,0,0,0,0,0,0,0,0,0,0,0,0,0,0,0,0,0,0],"id":20,"left_children":[1,3,5,7,-1,9,11,13,15,-1,-1,-1,-1,17,19,21,-1,23,25,27,29,-1,-1,-1,-1,-1,-1,-1,-1,-1,-1],"loss_changes":[5.356258E-1,7.9865664E-1,5.253317E-1,6.660898E-1,0E0,6.9612575E-1,6.6032195E-1,1.0151086E0,1.1358833E0,0E0,0E0,0E0,0E0,8.8815624E-1,9.6281385E-1,7.9989576E-1,0E0,8.8846475E-1,7.887976E-1,1.3385496E-1,1.0791196E0,0E0,0E0,0E0,0E0,0E0,0E0,0E0,0E0,0E0,0E0],"parents":[2147483647,0,0,1,1,2,2,3,3,5,5,6,6,7,7,8,8,13,13,14,14,15,15,17,17,18,18,19,19,20,20],"right_children":[2,4,6,8,-1,10,12,14,16,-1,-1,-1,-1,18,20,22,-1,24,26,28,30,-1,-1,-1,-1,-1,-1,-1,-1,-1,-1],"split_conditions":[4.09E1,4E1,2.8E1,1.93E2,-1.827646E-1,1.32E2,1.04E2,5.02E-1,7E0,8.4566005E-2,-1.3458934E-1,-3.3253726E-2,1.9622867E-1,8.4E1,6.1E1,1.55E2,1.1278025E-1,4.15E-1,7.9E1,3E0,6E0,-2.493211E-1,-3.390942E-3,2.3416337E-2,-1.3056035E-1,-1.8260556E-1,4.592641E-2,-1.3006133E-1,-3.5982276E-3,1.6680452E-1,-6.409397E-3],"split_indices":[4,4,6,3,0,3,1,5,0,0,0,0,0,2,2,1,0,5,3,0,0,0,0,0,0,0,0,0,0,0,0],"split_type":[0,0,0,0,0,0,0,0,0,0,0,0,0,0,0,0,0,0,0,0,0,0,0,0,0,0,0,0,0,0,0],"sum_hessian":[5.9272266E1,5.205185E1,7.2204156E0,5.0656258E1,1.3955929E0,3.2833397E0,3.9370759E0,4.537573E1,5.280529E0,1.8758307E0,1.4075091E0,1.258752E0,2.6783237E0,3.0432314E1,1.4943415E1,4.2272444E0,1.0532848E0,2.509887E1,5.3334455E0,2.3505702E0,1.2592845E1,2.3319685E0,1.8952757E0,2.2151033E1,2.947836E0,3.9284883E0,1.4049573E0,1.0765511E0,1.2740192E0,7.469058E0,5.123787E0],"tree_param":{"num_deleted":"0","num_feature":"7","num_nodes":"31","size_leaf_vector":"1"}},{"base_weights":[-1.4018044E-2,-1.360878E-1,3.455593E-3,1.4055769E-1,-1.559996E-2,-2.9396868E-1,2.3753121E-2,-2.060563E-2,-2.019702E-1,4.0147895E-1,-2.3053952E-2,-1.41006E-1,2.6492894E-1,-6.247968E-2,2.1036659E-1,-2.1813957E-1,4.9536537E-2,1.4724883E-1,-3.89944E-2,3.6351897E-2,-1.2509562E-1,1.712872E-1,-1.1830485E-2],"categories":[],"categories_nodes":[],"categories_segments":[],"categories_sizes":[],"default_left":[0,0,0,0,0,0,0,0,0,0,0,0,0,0,0,0,0,0,0,0,0,0,0],"id":21,"left_children":[1,-1,3,-1,5,7,9,11,-1,13,15,-1,17,-1,-1,19,21,-1,-1,-1,-1,-1,-1],"loss_changes":[4.5529017E-1,0E0,5.195506E-1,0E0,6.258517E-1,7.1933967E-1,9.007211E-1,7.8428394E-1,0E0,1.1720114E0,6.595096E-1,0E0,4.0132162E-1,0E0,0E0,9.0117556E-1,1.609125E0,0E0,0E0,0E0,0E0,0E0,0E0],"parents":[2147483647,0,0,2,2,4,4,5,5,6,6,7,7,9,9,10,10,12,12,15,15,16,16],"right_children":[2,-1,4,-1,6,8,10,12,-1,14,16,-1,18,-1,-1,20,22,-1,-1,-1,-1,-1,-1],"split_conditions":[1.27E-1,-1.360878E-1,1.42E-1,1.4055769E-1,2.03E-1,3.44E1,2.43E-1,2.93E1,-2.019702E-1,1.21E2,3.19E-1,-1.41006E-1,3.7E1,-6.247968E-2,2.1036659E-1,1.16E2,3.8E-1,1.4724883E-1,-3.89944E-2,3.6351897E-2,-1.2509562E-1,1.712872E-1,-1.1830485E-2],"split_indices":[5,0,5,0,5,4,5,4,0,1,5,0,6,0,0,1,5,0,0,0,0,0,0],"split_type":[0,0,0,0,0,0,0,0,0,0,0,0,0,0,0,0,0,0,0,0,0,0,0],"sum_hessian":[5.8066547E1,1.2655978E0,5.680095E1,1.3073126E0,5.5493637E1,6.0720735E0,4.9421566E1,4.1414037E0,1.9306693E0,4.6135573E0,4.4808006E1,1.3579564E0,2.7834475E0,1.6210878E0,2.9924698E0,1.1607634E1,3.3200375E1,1.616101E0,1.1673465E0,4.433272E0,7.1743617E0,4.049692E0,2.9150682E1],"tree_param":{"num_deleted":"0","num_feature":"7","num_nodes":"23","size_leaf_vector":"1"}},{"base_weights":[-1.0375766E-2,-3.0356723E-1,1.3993091E-2,5.759463E-2,-5.1790965E-1,9.400956E-2,-7.790806E-2,-1.9769107E-1,-2.7196143E-2,1.6556542E-1,-3.7009162E-1,-2.8587228E-1,1.3498013E-1,3.531538E-1,-1.00901484E-1,-2.1494378E-1,7.664067E-2,-1.245658E-1,-2.0684062E-1,-9.0960056E-2,5.9999377E-1,2.1811256E-2,5.3420866E-1,-3.1474614E-1,4.043093E-1,-1.9801424E-1,3.933493E-2,2.4136642E-1,-3.3003375E-1,2.571276E-1,-2.2777088E-2,-1.5465854E-1,7.5159244E-2,2.0800434E-1,-1.8561961E-2,-1.3571513E-1,1.0773237E-1,1.9805853E-1,-2.790645E-2,-4.2176988E-2,1.6727448E-1,-3.4165237E-2,1.7584544E-1,-2.3956811E-2,-1.7109907E-1],"categories":[],"categories_nodes":[],"categories_segments":[],"categories_sizes":[],"default_left":[0,0,0,0,0,0,0,0,0,0,0,0,0,0,0,0,0,0,0,0,0,0,0,0,0,0,0,0,0,0,0,0,0,0,0,0,0,0,0,0,0,0,0,0,0],"id":22,"left_children":[1,3,5,-1,7,9,11,-1,-1,13,15,17,19,21,23,-1,-1,25,-1,27,29,31,33,35,37,-1,39,41,43,-1,-1,-1,-1,-1,-1,-1,-1,-1,-1,-1,-1,-1,-1,-1,-1],"loss_changes":[4.1976315E-1,5.7813835E-1,4.0919814E-1,0E0,1.4617252E-1,1.046494E0,1.1889275E0,0E0,0E0,1.3550134E0,1.1087606E0,7.906678E-1,1.4749191E0,9.3095124E-1,1.3894012E0,0E0,0E0,9.7734445E-1,0E0,8.714995E-1,8.561449E-1,9.396211E-1,1.0026779E0,9.758975E-1,5.5926317E-1,0E0,9.40295E-1,6.482577E-1,3.283167E-1,0E0,0E0,0E0,0E0,0E0,0E0,0E0,0E0,0E0,0E0,0E0,0E0,0E0,0E0,0E0,0E0],"parents":[2147483647,0,0,1,1,2,2,4,4,5,5,6,6,9,9,10,10,11,11,12,12,13,13,14,14,17,17,19,19,20,20,21,21,22,22,23,23,24,24,26,26,27,27,28,28],"right_children":[2,4,6,-1,8,10,12,-1,-1,14,16,18,20,22,24,-1,-1,26,-1,28,30,32,34,36,38,-1,40,42,44,-1,-1,-1,-1,-1,-1,-1,-1,-1,-1,-1,-1,-1,-1,-1,-1],"split_conditions":[8.8E1,3.11E1,4.9E1,5.759463E-2,3.71E1,1E1,3.42E1,-1.9769107E-1,-2.7196143E-2,7.8E1,4.21E-1,3.31E1,3.5E1,3E1,1.44E2,-2.1494378E-1,7.664067E-2,2.5E1,-2.0684062E-1,7E1,3.84E1,2.38E-1,3.84E1,4.05E1,5.43E-1,-1.9801424E-1,1.55E2,1.59E2,2.31E2,2.571276E-1,-2.2777088E-2,-1.5465854E-1,7.5159244E-2,2.0800434E-1,-1.8561961E-2,-1.3571513E-1,1.0773237E-1,1.9805853E-1,-2.790645E-2,-4.2176988E-2,1.6727448E-1,-3.4165237E-2,1.7584544E-1,-2.3956811E-2,-1.7109907E-1],"split_indices":[1,4,3,0,4,0,4,0,0,2,5,4,6,4,1,0,0,6,0,2,4,5,4,4,5,0,1,3,3,0,0,0,0,0,0,0,0,0,0,0,0,0,0,0,0],"split_type":[0,0,0,0,0,0,0,0,0,0,0,0,0,0,0,0,0,0,0,0,0,0,0,0,0,0,0,0,0,0,0,0,0,0,0,0,0,0,0,0,0,0,0,0,0],"sum_hessian":[5.715681E1,3.506886E0,5.3649925E1,1.090356E0,2.41653E0,2.866711E1,2.4982815E1,1.4090075E0,1.0075223E0,2.5394934E1,3.2721756E0,1.2464137E1,1.2518679E1,1.4712356E1,1.0682579E1,2.0124788E0,1.2596966E0,9.839997E0,2.6241395E0,8.96646E0,3.5522184E0,5.594505E0,9.11785E0,7.770498E0,2.9120812E0,1.5966029E0,8.243395E0,3.7475524E0,5.218908E0,2.379201E0,1.1730174E0,1.295936E0,4.2985687E0,7.0677586E0,2.050092E0,6.7254567E0,1.0450413E0,1.7065524E0,1.2055289E0,6.659922E0,1.5834721E0,2.175605E0,1.5719472E0,3.2096236E0,2.0092843E0],"tree_param":{"num_deleted":"0","num_feature":"7","num_nodes":"45","size_leaf_vector":"1"}},{"base_weights":[-1.0415155E-2,-2.0949413E-1,3.2418247E-2,-3.8970345E-1,9.75805E-2,3.5856923E-1,-9.052353E-4,7.540679E-2,-5.621166E-1,-8.1053436E-2,1.4344966E-1,-2.093104E-2,1.9980605E-1,2.9803371E-2,-1.9028403E-1,-3.8153164E-2,-2.2096662E-1,-2.7979282E-1,8.675446E-2,3.5285495E-2,-2.3567076E-1,1.6317879E-1,4.0162664E-2,9.5733814E-2,-1.1380812E-1,-1.5187945E-2,7.037481E-2],"categories":[],"categories_nodes":[],"categories_segments":[],"categories_sizes":[],"default_left":[0,0,0,0,0,0,0,0,0,0,0,0,0,0,0,0,0,0,0,0,0,0,0,0,0,0,0],"id":23,"left_children":[1,3,5,7,9,11,13,-1,15,-1,-1,-1,-1,17,-1,-1,-1,19,21,23,-1,-1,25,-1,-1,-1,-1],"loss_changes":[4.844211E-1,5.94262E-1,5.1071584E-1,8.635365E-1,7.614162E-1,6.2009776E-1,8.6702085E-1,0E0,3.204701E-1,0E0,0E0,0E0,0E0,7.743953E-1,0E0,0E0,0E0,1.1188122E0,7.59819E-1,7.30175E-1,0E0,0E0,6.187711E-1,0E0,0E0,0E0,0E0],"parents":[2147483647,0,0,1,1,2,2,3,3,4,4,5,5,6,6,8,8,13,13,17,17,18,18,19,19,22,22],"right_children":[2,4,6,8,10,12,14,-1,16,-1,-1,-1,-1,18,-1,-1,-1,20,22,24,-1,-1,26,-1,-1,-1,-1],"split_conditions":[2.5E1,5.29E-1,2.6E1,5.5E1,2E0,1.2E2,1.391E0,7.540679E-2,1E0,-8.1053436E-2,1.4344966E-1,-2.093104E-2,1.9980605E-1,2.03E-1,-1.9028403E-1,-3.8153164E-2,-2.2096662E-1,1.81E-1,2.35E-1,1.4E1,-2.3567076E-1,1.6317879E-1,4.2E1,9.5733814E-2,-1.1380812E-1,-1.5187945E-2,7.037481E-2],"split_indices":[6,5,6,2,0,1,5,0,0,0,0,0,0,5,0,0,0,5,5,3,0,0,6,0,0,0,0],"split_type":[0,0,0,0,0,0,0,0,0,0,0,0,0,0,0,0,0,0,0,0,0,0,0,0,0,0,0],"sum_hessian":[5.5012295E1,9.051637E0,4.596066E1,5.5345535E0,3.517083E0,3.3557968E0,4.2604862E1,1.0759885E0,4.4585648E0,1.9362174E0,1.5808654E0,1.7252519E0,1.630545E0,4.1543602E1,1.0612588E0,1.7712524E0,2.6873124E0,5.8467536E0,3.5696846E1,4.1756973E0,1.6710563E0,2.314252E0,3.3382595E1,2.6156611E0,1.5600363E0,2.3260258E1,1.0122339E1],"tree_param":{"num_deleted":"0","num_feature":"7","num_nodes":"27","size_leaf_vector":"1"}},{"base_weights":[-1.1687496E-2,-2.0481561E-1,3.0461933E-2,-3.4951404E-1,1.4833723E-1,-5.714342E-3,2.708249E-1,-4.6831286E-1,3.328717E-2,1.5465505E-1,-6.317954E-2,2.2253212E-2,-1.4784947E-1,-6.6762984E-2,5.147454E-1,-6.222746E-1,9.0636285E-3,-1.1586133E-2,3.2348713E-1,1.09528154E-1,-1.220458E-1,2.9100306E-2,2.1310784E-1,-2.282687E-1,-5.0457586E-2,1.9194158E-2,-1.2821047E-1,-7.789494E-3,1.3983822E-1,8.4392846E-2,-9.603713E-3],"categories":[],"categories_nodes":[],"categories_segments":[],"categories_sizes":[],"default_left":[0,0,0,0,0,0,0,0,0,0,0,0,0,0,0,0,0,0,0,0,0,0,0,0,0,0,0,0,0,0,0],"id":24,"left_children":[1,3,5,7,9,11,13,15,-1,-1,-1,17,-1,19,21,23,-1,25,27,-1,-1,-1,-1,-1,-1,29,-1,-1,-1,-1,-1],"loss_changes":[4.5311671E-1,5.610237E-1,4.0095645E-1,4.549141E-1,5.827747E-1,5.682165E-1,5.3086615E-1,4.82929E-1,0E0,0E0,0E0,4.078152E-1,0E0,6.49944E-1,2.2651565E-1,1.6575432E-1,0E0,4.7662714E-1,2.1337107E-1,0E0,0E0,0E0,0E0,0E0,0E0,4.7925693E-1,0E0,0E0,0E0,0E0,0E0],"parents":[2147483647,0,0,1,1,2,2,3,3,4,4,5,5,6,6,7,7,11,11,13,13,14,14,15,15,17,17,18,18,25,25],"right_children":[2,4,6,8,10,12,14,16,-1,-1,-1,18,-1,20,22,24,-1,26,28,-1,-1,-1,-1,-1,-1,30,-1,-1,-1,-1,-1],"split_conditions":[1.01E2,8.7E1,4.09E1,4.3E1,1.05E2,4E1,2.8E1,3.82E1,3.328717E-2,1.5465505E-1,-6.317954E-2,9.05E-1,-1.4784947E-1,4.45E1,8E1,9.5E1,9.0636285E-3,7.67E-1,1.21E2,1.09528154E-1,-1.220458E-1,2.9100306E-2,2.1310784E-1,-2.282687E-1,-5.0457586E-2,1.1E2,-1.2821047E-1,-7.789494E-3,1.3983822E-1,8.4392846E-2,-9.603713E-3],"split_indices":[1,3,4,6,3,4,6,4,0,0,0,5,0,4,2,1,0,5,1,0,0,0,0,0,0,1,0,0,0,0,0],"split_type":[0,0,0,0,0,0,0,0,0,0,0,0,0,0,0,0,0,0,0,0,0,0,0,0,0,0,0,0,0,0,0],"sum_hessian":[5.389736E1,8.964209E0,4.4933155E1,6.3661065E0,2.5981016E0,3.9903614E1,5.029541E0,5.0469856E0,1.3191212E0,1.0686599E0,1.5294416E0,3.8639465E1,1.2641461E0,2.414352E0,2.6151893E0,3.6664329E0,1.3805526E0,3.5601665E1,3.0378027E0,1.0311757E0,1.3831761E0,1.3111138E0,1.3040755E0,2.2912805E0,1.3751522E0,3.403583E1,1.5658321E0,1.1176524E0,1.9201502E0,4.828115E0,2.9207718E1],"tree_param":{"num_deleted":"0","num_feature":"7","num_nodes":"31","size_leaf_vector":"1"}},{"base_weights":[-8.642228E-3,-1.2457769E-1,4.3992367E-2,-4.6760854E-1,7.5661377E-3,2.8982937E-1,-8.589789E-3,-5.8357537E-1,-5.6342757E-3,-1.6031356E-1,3.434528E-1,-4.7250383E-2,5.477068E-1,-4.1766623E-1,5.6997262E-2,-6.082711E-2,-2.0841052E-1,4.984894E-2,-3.3956724E-1,4.830277E-1,-2.3531443E-2,8.267778E-2,-1.0516467E-1,3.8069632E-2,1.9966407E-1,7.992473E-2,-2.1010974E-1,-2.1015848E-1,1.1354794E-1,4.328996E-1,-1.5300177E-1,-2.1724533E-1,6.7117706E-2,1.832743E-1,5.5843096E-2,-3.9835575E-1,6.610536E-2,5.095893E-1,4.9737204E-2,-8.414826E-3,1.9253945E-1,-1.8218067E-1,1.3634991E-2,2.0187296E-1,3.1340398E-2,-7.6652125E-2,5.396986E-2],"categories":[],"categories_nodes":[],"categories_segments":[],"categories_sizes":[],"default_left":[0,0,0,0,0,0,0,0,0,0,0,0,0,0,0,0,0,0,0,0,0,0,0,0,0,0,0,0,0,0,0,0,0,0,0,0,0,0,0,0,0,0,0,0,0,0,0],"id":25,"left_children":[1,3,5,7,9,11,13,15,-1,17,19,21,23,25,27,-1,-1,29,31,33,-1,-1,-1,-1,-1,-1,-1,35,37,39,-1,-1,-1,-1,-1,41,-1,43,45,-1,-1,-1,-1,-1,-1,-1,-1],"loss_changes":[3.3482674E-1,7.792671E-1,4.9187192E-1,2.3757493E-1,8.0717874E-1,6.082375E-1,8.86633E-1,1.8319488E-2,0E0,3.7763983E-1,3.1836796E-1,4.7108707E-1,1.07702136E-1,1.0691543E0,4.5587534E-1,0E0,0E0,1.3529826E0,1.3091924E0,2.7475059E-2,0E0,0E0,0E0,0E0,0E0,0E0,0E0,5.209385E-1,5.8746636E-1,3.7193245E-1,0E0,0E0,0E0,0E0,0E0,4.0553385E-1,0E0,1.451816E-1,9.197458E-1,0E0,0E0,0E0,0E0,0E0,0E0,0E0,0E0],"parents":[2147483647,0,0,1,1,2,2,3,3,4,4,5,5,6,6,7,7,9,9,10,10,11,11,12,12,13,13,14,14,17,17,18,18,19,19,27,27,28,28,29,29,35,35,37,37,38,38],"right_children":[2,4,6,8,10,12,14,16,-1,18,20,22,24,26,28,-1,-1,30,32,34,-1,-1,-1,-1,-1,-1,-1,36,38,40,-1,-1,-1,-1,-1,42,-1,44,46,-1,-1,-1,-1,-1,-1,-1,-1],"split_conditions":[1.12E2,2E0,1.2E2,3.6E1,6.4E-1,2.9E1,1.24E2,6.5E1,-5.6342757E-3,3.25E1,8.74E-1,3.37E1,2.9E1,6.8E1,2.03E-1,-6.082711E-2,-2.0841052E-1,2.99E-1,3.37E-1,4E0,-2.3531443E-2,8.267778E-2,-1.0516467E-1,3.8069632E-2,1.9966407E-1,7.992473E-2,-2.1010974E-1,1.58E2,1.26E2,2.97E1,-1.5300177E-1,-2.1724533E-1,6.7117706E-2,1.832743E-1,5.5843096E-2,6E0,6.610536E-2,2.9E1,3E1,-8.414826E-3,1.9253945E-1,-1.8218067E-1,1.3634991E-2,2.0187296E-1,3.1340398E-2,-7.6652125E-2,5.396986E-2],"split_indices":[1,0,1,6,5,6,1,2,0,4,5,4,4,2,5,0,0,5,5,0,0,0,0,0,0,0,0,1,1,4,0,0,0,0,0,0,0,4,4,0,0,0,0,0,0,0,0],"split_type":[0,0,0,0,0,0,0,0,0,0,0,0,0,0,0,0,0,0,0,0,0,0,0,0,0,0,0,0,0,0,0,0,0,0,0,0,0,0,0,0,0,0,0,0,0,0,0],"sum_hessian":[5.2971584E1,1.6113152E1,3.6858433E1,3.7750092E0,1.2338141E1,5.6995287E0,3.1158903E1,2.7613242E0,1.013685E0,8.574987E0,3.7631538E0,2.8244162E0,2.8751125E0,3.5636644E0,2.759524E1,1.2618067E0,1.4995174E0,4.2794905E0,4.2954974E0,2.7187831E0,1.0443708E0,1.4123759E0,1.4120404E0,1.0833462E0,1.7917663E0,1.0589054E0,2.504759E0,4.346289E0,2.324895E1,2.6756113E0,1.6038791E0,2.3829737E0,1.912524E0,1.1609397E0,1.5578434E0,3.0762115E0,1.2700778E0,2.2567127E0,2.0992237E1,1.1044011E0,1.57121E0,1.8411864E0,1.2350249E0,1.1372384E0,1.1194743E0,5.98763E0,1.5004607E1],"tree_param":{"num_deleted":"0","num_feature":"7","num_nodes":"47","size_leaf_vector":"1"}},{"base_weights":[-7.6642456E-3,-3.744677E-2,1.9464372E-1,-1.4078218E-2,-1.2369479E-1,-5.0444834E-2,3.998074E-1,-8.8176005E-2,9.80956E-2,-1.0450627E-1,7.463215E-2,2.0794754E-1,3.409967E-3,-4.160359E-2,-1.6562314E-1,-8.236579E-2,4.6630308E-1,-1.0879921E-1,1.6077033E-1,-1.760848E-1,1.0992503E-1,2.1920553E-1,4.285161E-2,2.8540476E-4,-1.0520611E-1,9.5549636E-2,-9.224572E-2,-7.749487E-2,1.1446657E-1],"categories":[],"categories_nodes":[],"categories_segments":[],"categories_sizes":[],"default_left":[0,0,0,0,0,0,0,0,0,0,0,0,0,0,0,0,0,0,0,0,0,0,0,0,0,0,0,0,0],"id":26,"left_children":[1,3,5,7,-1,9,11,13,15,-1,-1,-1,-1,17,-1,19,21,23,-1,25,-1,-1,27,-1,-1,-1,-1,-1,-1],"loss_changes":[3.2245255E-1,4.0096137E-1,3.6579335E-1,3.8055676E-1,0E0,4.4500414E-1,4.312331E-1,5.705618E-1,1.252558E0,0E0,0E0,0E0,0E0,1.0690811E0,0E0,6.160188E-1,6.5832484E-1,6.418087E-1,0E0,8.467709E-1,0E0,0E0,4.4844806E-1,0E0,0E0,0E0,0E0,0E0,0E0],"parents":[2147483647,0,0,1,1,2,2,3,3,5,5,6,6,7,7,8,8,13,13,15,15,16,16,17,17,19,19,22,22],"right_children":[2,4,6,8,-1,10,12,14,16,-1,-1,-1,-1,18,-1,20,22,24,-1,26,-1,-1,28,-1,-1,-1,-1,-1,-1],"split_conditions":[4.09E1,3.96E1,8E1,1.3E2,-1.2369479E-1,1.21E2,1.4E1,1.92E2,3.41E1,-1.0450627E-1,7.463215E-2,2.0794754E-1,3.409967E-3,1.59E2,-1.6562314E-1,6.96E-1,1.49E2,7.8E1,1.6077033E-1,2.59E1,1.0992503E-1,2.1920553E-1,7.5E1,2.8540476E-4,-1.0520611E-1,9.5549636E-2,-9.224572E-2,-7.749487E-2,1.1446657E-1],"split_indices":[4,4,2,1,0,1,3,3,4,0,0,0,0,3,0,5,1,2,0,4,0,0,2,0,0,0,0,0,0],"split_type":[0,0,0,0,0,0,0,0,0,0,0,0,0,0,0,0,0,0,0,0,0,0,0,0,0,0,0,0,0],"sum_hessian":[5.1307236E1,4.5433674E1,5.873562E0,4.37443E1,1.6893723E0,3.0199966E0,2.853565E0,2.6471899E1,1.7272402E1,1.4310228E0,1.5889739E0,1.1788399E0,1.674725E0,2.5047035E1,1.424864E0,1.21123495E1,5.160052E0,2.3163454E1,1.8835816E0,1.0522567E1,1.5897827E0,2.7300184E0,2.4300334E0,1.6619045E1,6.5444093E0,1.909915E0,8.612652E0,1.411922E0,1.0181115E0],"tree_param":{"num_deleted":"0","num_feature":"7","num_nodes":"29","size_leaf_vector":"1"}},{"base_weights":[1.1843274E-3,-1.605057E-1,3.50735E-2,-3.1019616E-1,8.6101815E-2,5.579088E-2,-9.983804E-2,6.509978E-2,-4.734122E-1,1.13454744E-1,-1.2117738E-1,1.2225323E-1,-7.9948716E-2,-2.573001E-2,-1.9297065E-1,5.2050985E-2,2.2848605E-1,-2.7352956E-1,1.583848E-1,1.3195463E-1,-2.9613462E-1,-6.4790195E-1,1.4013982E-3,8.772352E-2,-1.105455E-3,-1.2660791E-1,2.113773E-2,-5.2751478E-2,-2.3926829E-1,5.1403336E-2,-6.67601E-2],"categories":[],"categories_nodes":[],"categories_segments":[],"categories_sizes":[],"default_left":[0,0,0,0,0,0,0,0,0,0,0,0,0,0,0,0,0,0,0,0,0,0,0,0,0,0,0,0,0,0,0],"id":27,"left_children":[1,3,5,7,9,11,-1,-1,13,-1,-1,15,17,-1,-1,19,-1,21,-1,23,25,27,29,-1,-1,-1,-1,-1,-1,-1,-1],"loss_changes":[2.861206E-1,3.607548E-1,3.473446E-1,6.0596E-1,7.54004E-1,3.8593847E-1,0E0,0E0,2.5950968E-1,0E0,0E0,1.234475E0,1.828353E0,0E0,0E0,7.8054726E-1,0E0,1.1858292E0,0E0,4.8791176E-1,2.735398E-1,2.0429349E-1,3.2871E-1,0E0,0E0,0E0,0E0,0E0,0E0,0E0,0E0],"parents":[2147483647,0,0,1,1,2,2,3,3,4,4,5,5,8,8,11,11,12,12,15,15,17,17,19,19,20,20,21,21,22,22],"right_children":[2,4,6,8,10,12,-1,-1,14,-1,-1,16,18,-1,-1,20,-1,22,-1,24,26,28,30,-1,-1,-1,-1,-1,-1,-1,-1],"split_conditions":[2.5E1,5.29E-1,6.3E1,5.5E1,6.96E-1,5.57E-1,-9.983804E-2,6.509978E-2,1E0,1.13454744E-1,-1.2117738E-1,5.14E-1,8E0,-2.573001E-2,-1.9297065E-1,9E0,2.2848605E-1,7.09E-1,1.583848E-1,3.19E1,9.5E1,1.26E2,3.67E1,8.772352E-2,-1.105455E-3,-1.2660791E-1,2.113773E-2,-5.2751478E-2,-2.3926829E-1,5.1403336E-2,-6.67601E-2],"split_indices":[6,5,6,2,5,5,0,0,0,0,0,5,0,0,0,0,0,5,0,4,3,1,4,0,0,0,0,0,0,0,0],"split_type":[0,0,0,0,0,0,0,0,0,0,0,0,0,0,0,0,0,0,0,0,0,0,0,0,0,0,0,0,0,0,0],"sum_hessian":[5.0188793E1,8.049119E0,4.2139675E1,4.848333E0,3.2007856E0,4.0696106E1,1.443567E0,1.068265E0,3.780068E0,2.1484444E0,1.0523415E0,2.7386282E1,1.3309825E1,1.6100157E0,2.1700523E0,2.56512E1,1.735082E0,1.0512299E1,2.7975266E0,2.1368464E1,4.2827363E0,3.8767478E0,6.6355505E0,9.259259E0,1.2109204E1,3.0754037E0,1.2073326E0,1.4567385E0,2.4200094E0,3.9060893E0,2.7294614E0],"tree_param":{"num_deleted":"0","num_feature":"7","num_nodes":"31","size_leaf_vector":"1"}},{"base_weights":[-3.5732721E-3,-3.98232E-2,1.7370327E-1,-1.2387145E-2,-1.4547727E-1,2.964419E-1,-1.5302844E-1,-3.5543352E-2,1.0688912E-1,-2.2418277E-2,3.91899E-1,-1.2118138E-1,5.2450426E-2,-2.463692E-3,-4.1089833E-1,5.195023E-1,-2.445316E-2,-5.039732E-2,4.3748042E-1,-1.6726084E-1,-2.3043945E-2,1.8983188E-1,2.3864685E-2,-6.12329E-2,8.325269E-3,2.2742534E-2,1.748752E-1],"categories":[],"categories_nodes":[],"categories_segments":[],"categories_sizes":[],"default_left":[0,0,0,0,0,0,0,0,0,0,0,0,0,0,0,0,0,0,0,0,0,0,0,0,0,0,0],"id":28,"left_children":[1,3,5,7,-1,9,11,13,-1,-1,15,-1,-1,17,19,21,-1,23,25,-1,-1,-1,-1,-1,-1,-1,-1],"loss_changes":[3.3000278E-1,5.1365566E-1,3.951275E-1,3.636297E-1,0E0,2.6598102E-1,3.2080433E-1,4.905544E-1,0E0,0E0,3.7302345E-1,0E0,0E0,8.1051284E-1,1.1395836E-1,1.7129624E-1,0E0,4.214393E-1,1.5446854E-1,0E0,0E0,0E0,0E0,0E0,0E0,0E0,0E0],"parents":[2147483647,0,0,1,1,2,2,3,3,5,5,6,6,7,7,10,10,13,13,14,14,15,15,17,17,18,18],"right_children":[2,4,6,8,-1,10,12,14,-1,-1,16,-1,-1,18,20,22,-1,24,26,-1,-1,-1,-1,-1,-1,-1,-1],"split_conditions":[1.55E2,1.5E2,6.19E-1,4.54E1,-1.4547727E-1,2.7E1,7.5E1,1.96E2,1.0688912E-1,-2.2418277E-2,5.4E1,-1.2118138E-1,5.2450426E-2,1.59E2,2.37E2,1.79E2,-2.445316E-2,3E0,5.14E-1,-1.6726084E-1,-2.3043945E-2,1.8983188E-1,2.3864685E-2,-6.12329E-2,8.325269E-3,2.2742534E-2,1.748752E-1],"split_indices":[1,1,5,4,0,6,2,3,0,0,6,0,0,3,3,1,0,0,5,0,0,0,0,0,0,0,0],"split_type":[0,0,0,0,0,0,0,0,0,0,0,0,0,0,0,0,0,0,0,0,0,0,0,0,0,0,0],"sum_hessian":[4.9275787E1,4.1554073E1,7.7217145E0,4.0109547E1,1.4445252E0,5.6805058E0,2.0412087E0,3.8589428E1,1.5201192E0,1.2064767E0,4.474029E0,1.0248628E0,1.0163461E0,3.638906E1,2.200368E0,3.4474392E0,1.0265898E0,3.3612312E1,2.7767467E0,1.0643541E0,1.136014E0,2.3930504E0,1.0543889E0,1.0785711E1,2.2826603E1,1.2326484E0,1.5440985E0],"tree_param":{"num_deleted":"0","num_feature":"7","num_nodes":"27","size_leaf_vector":"1"}},{"base_weights":[-1.8702373E-3,-2.6986768E-2,2.1915959E-1,3.0800326E-2,-1.3783623E-1,4.005435E-1,-4.650416E-2,-1.9919481E-2,1.5713023E-1,-2.2196513E-1,2.5276944E-1,8.448974E-4,1.8886197E-1,4.103018E-2,-4.4463095E-1,-5.0290275E-1,-1.03560366E-1,-2.0529795E-2,1.2817857E-1,1.4646141E-1,-1.187663E-1,-1.8062896E-1,-3.6791626E-2,-2.1391456E-1,-7.9116495E-3,9.7818166E-2,-3.0896854E-1,7.0306263E-3,1.07879736E-1,-7.8304045E-2,1.2122202E-1,1.14388414E-1,-8.79999E-2,-1.2861715E-1,1.3826693E-2],"categories":[],"categories_nodes":[],"categories_segments":[],"categories_sizes":[],"default_left":[0,0,0,0,0,0,0,0,0,0,0,0,0,0,0,0,0,0,0,0,0,0,0,0,0,0,0,0,0,0,0,0,0,0,0],"id":29,"left_children":[1,3,5,7,9,11,-1,13,-1,15,17,-1,-1,19,21,23,25,-1,-1,27,29,-1,-1,-1,-1,31,33,-1,-1,-1,-1,-1,-1,-1,-1],"loss_changes":[2.810253E-1,2.9499748E-1,4.127212E-1,7.768645E-1,5.732262E-1,3.4055078E-1,0E0,7.626499E-1,0E0,3.9633012E-1,2.1174324E-1,0E0,0E0,4.5650294E-1,1.134274E-1,3.5547715E-1,4.7459123E-1,0E0,0E0,4.15071E-1,9.1708213E-1,0E0,0E0,0E0,0E0,7.975505E-1,2.5611097E-1,0E0,0E0,0E0,0E0,0E0,0E0,0E0,0E0],"parents":[2147483647,0,0,1,1,2,2,3,3,4,4,5,5,7,7,9,9,10,10,13,13,14,14,15,15,16,16,19,19,20,20,25,25,26,26],"right_children":[2,4,6,8,10,12,-1,14,-1,16,18,-1,-1,20,22,24,26,-1,-1,28,30,-1,-1,-1,-1,32,34,-1,-1,-1,-1,-1,-1,-1,-1],"split_conditions":[1.67E2,1E2,1.91E2,8.8E1,8E0,7.1E1,-4.650416E-2,4.9E1,1.5713023E-1,1.27E2,1.16E2,8.448974E-4,1.8886197E-1,7.8E1,1.06E2,1.25E2,3E0,-2.0529795E-2,1.2817857E-1,7.2E1,1.44E2,-1.8062896E-1,-3.6791626E-2,-2.1391456E-1,-7.9116495E-3,1.96E2,3.52E1,7.0306263E-3,1.07879736E-1,-7.8304045E-2,1.2122202E-1,1.14388414E-1,-8.79999E-2,-1.2861715E-1,1.3826693E-2],"split_indices":[1,3,1,3,0,3,0,3,0,3,3,0,0,2,1,1,0,0,0,2,1,0,0,0,0,3,4,0,0,0,0,0,0,0,0],"split_type":[0,0,0,0,0,0,0,0,0,0,0,0,0,0,0,0,0,0,0,0,0,0,0,0,0,0,0,0,0,0,0,0,0,0,0],"sum_hessian":[4.855611E1,4.4389816E1,4.1662936E0,2.9653336E1,1.4736482E1,2.7585747E0,1.4077191E0,2.775709E1,1.8962456E0,1.2480224E1,2.2562578E0,1.3778263E0,1.3807484E0,2.506364E1,2.69345E0,2.737551E0,9.742673E0,1.0082009E0,1.2480569E0,1.5150817E1,9.912824E0,1.2246451E0,1.4688047E0,1.5553305E0,1.1822205E0,5.184079E0,4.5585933E0,1.0309809E1,4.841008E0,8.186365E0,1.7264587E0,3.020355E0,2.1637244E0,3.2536957E0,1.3048975E0],"tree_param":{"num_deleted":"0","num_feature":"7","num_nodes":"35","size_leaf_vector":"1"}},{"base_weights":[-9.395962E-4,-1.6958553E-2,1.03716455E-1,-2.4628237E-1,1.3552709E-2,-4.6120486E-1,3.3018995E-2,3.4363148E-1,-1.9651277E-2,-2.7233316E-2,-1.7694053E-1,7.843766E-2,-7.5599834E-2,2.7612206E-2,1.5861651E-1,-2.5386646E-1,2.3606515E-2,-1.6041031E-1,-2.789008E-2,4.9474198E-1,-2.7147094E-2,-1.2285783E-1,6.529925E-2,4.558964E-2,1.7841263E-1,-1.4791867E-1,3.3562563E-3],"categories":[],"categories_nodes":[],"categories_segments":[],"categories_sizes":[],"default_left":[0,0,0,0,0,0,0,0,0,0,0,0,0,0,0,0,0,0,0,0,0,0,0,0,0,0,0],"id":30,"left_children":[1,3,-1,5,7,9,11,13,15,-1,-1,-1,-1,-1,-1,17,19,-1,21,23,25,-1,-1,-1,-1,-1,-1],"loss_changes":[2.745726E-1,3.336271E-1,0E0,3.5109755E-1,4.7374997E-1,1.0026693E-1,2.8507006E-1,1.352103E-1,4.078226E-1,0E0,0E0,0E0,0E0,0E0,0E0,3.8287807E-1,8.358237E-1,0E0,5.1350224E-1,2.6017189E-2,5.769868E-1,0E0,0E0,0E0,0E0,0E0,0E0],"parents":[2147483647,0,0,1,1,3,3,4,4,5,5,6,6,7,7,8,8,15,15,16,16,18,18,19,19,20,20],"right_children":[2,4,-1,6,8,10,12,14,16,-1,-1,-1,-1,-1,-1,18,20,-1,22,24,26,-1,-1,-1,-1,-1,-1],"split_conditions":[9.6E1,2.64E1,1.03716455E-1,1.32E2,5.2E1,1.09E2,7.4E1,8.6E1,2.5E1,-2.7233316E-2,-1.7694053E-1,7.843766E-2,-7.5599834E-2,2.7612206E-2,1.5861651E-1,3.33E1,2.6E1,-1.6041031E-1,1.13E2,1.17E2,2.7E1,-1.2285783E-1,6.529925E-2,4.558964E-2,1.7841263E-1,-1.4791867E-1,3.3562563E-3],"split_indices":[2,4,0,1,2,1,2,3,6,0,0,0,0,0,0,4,6,0,1,1,6,0,0,0,0,0,0],"split_type":[0,0,0,0,0,0,0,0,0,0,0,0,0,0,0,0,0,0,0,0,0,0,0,0,0,0,0],"sum_hessian":[4.73887E1,4.6204693E1,1.1840047E0,4.595193E0,4.16095E1,2.2288284E0,2.3663645E0,2.9485953E0,3.8660904E1,1.0139693E0,1.2148592E0,1.3594426E0,1.0069219E0,1.8844123E0,1.064183E0,5.2681766E0,3.339273E1,1.7398181E0,3.5283585E0,2.396703E0,3.0996025E1,1.1199657E0,2.408393E0,1.1101758E0,1.2865273E0,1.4546227E0,2.9541403E1],"tree_param":{"num_deleted":"0","num_feature":"7","num_nodes":"27","size_leaf_vector":"1"}},{"base_weights":[-2.3055347E-3,1.4564129E-2,-1.1285547E-1,-5.358245E-3,1.3740934E-1,-3.1467803E-2,2.6123554E-1,2.705218E-2,-1.469709E-1,4.194264E-4,1.3759686E-1,-1.5446383E-2,1.2845096E-1,-2.2549342E-1,2.0777588E-1,1.2056383E-2,-1.262213E-1,-3.0032478E-2,-1.5502845E-1,-1.45607935E-2,1.1093811E-1],"categories":[],"categories_nodes":[],"categories_segments":[],"categories_sizes":[],"default_left":[0,0,0,0,0,0,0,0,0,0,0,0,0,0,0,0,0,0,0,0,0],"id":31,"left_children":[1,3,-1,5,-1,7,9,11,13,-1,-1,15,-1,17,19,-1,-1,-1,-1,-1,-1],"loss_changes":[3.0595782E-1,4.136882E-1,0E0,3.251647E-1,0E0,2.9032803E-1,2.1322644E-1,5.0034153E-1,4.480197E-1,0E0,0E0,6.291663E-1,0E0,3.9642E-1,1.4794888E-1,0E0,0E0,0E0,0E0,0E0,0E0],"parents":[2147483647,0,0,1,1,3,3,5,5,6,6,7,7,8,8,11,11,13,13,14,14],"right_children":[2,4,-1,6,-1,8,10,12,14,-1,-1,16,-1,18,20,-1,-1,-1,-1,-1,-1],"split_conditions":[1.441E0,1.182E0,-1.1285547E-1,1.67E2,1.3740934E-1,1E2,3.8E1,8.8E1,8E0,4.194264E-4,1.3759686E-1,4.9E1,1.2845096E-1,6E0,3.56E-1,1.2056383E-2,-1.262213E-1,-3.0032478E-2,-1.5502845E-1,-1.45607935E-2,1.1093811E-1],"split_indices":[5,5,0,1,0,3,6,3,0,0,0,3,0,0,5,0,0,0,0,0,0],"split_type":[0,0,0,0,0,0,0,0,0,0,0,0,0,0,0,0,0,0,0,0,0],"sum_hessian":[4.6640495E1,4.5546455E1,1.0940378E0,4.4533733E1,1.0127225E0,4.136455E1,3.1691816E0,2.7962872E1,1.3401682E1,1.8030967E0,1.3660849E0,2.61534E1,1.8094707E0,1.1271181E1,2.1305006E0,2.378876E1,2.3646412E0,8.818632E0,2.4525492E0,1.0964102E0,1.0340903E0],"tree_param":{"num_deleted":"0","num_feature":"7","num_nodes":"21","size_leaf_vector":"1"}},{"base_weights":[2.2679953E-4,1.4713514E-2,-9.694E-2,-7.3084354E-2,8.2493566E-2,3.0421945E-3,-1.8526115E-1,5.1338065E-1,1.3441518E-2,9.936554E-2,-1.7003165E-1,3.217636E-2,2.0728345E-1,-1.9887191E-1,1.0190407E-1,-2.9434308E-1,2.0859754E-1,-3.687257E-1,7.672141E-2,-3.8496023E-1,9.0196155E-2,1.6551754E-1,4.861277E-3,-1.2224063E-1,-7.1838824E-3,1.1540081E-1,-8.387647E-2,-1.8509196E-1,-4.8773862E-2,-1.8183406E-1,1.3621847E-2,-2.4846056E-2,1.3886818E-1],"categories":[],"categories_nodes":[],"categories_segments":[],"categories_sizes":[],"default_left":[0,0,0,0,0,0,0,0,0,0,0,0,0,0,0,0,0,0,0,0,0,0,0,0,0,0,0,0,0,0,0,0,0],"id":32,"left_children":[1,3,-1,5,7,9,-1,11,13,15,17,-1,-1,19,21,23,25,27,-1,29,-1,-1,31,-1,-1,-1,-1,-1,-1,-1,-1,-1,-1],"loss_changes":[2.252093E-1,2.797708E-1,0E0,8.544817E-1,7.794569E-1,3.3435288E-1,0E0,1.8719637E-1,4.6737477E-1,6.1466384E-1,7.0149827E-1,0E0,0E0,7.980668E-1,7.5970346E-1,8.839762E-2,1.0235019E0,1.71089E-1,0E0,5.7826686E-1,0E0,0E0,6.5580255E-1,0E0,0E0,0E0,0E0,0E0,0E0,0E0,0E0,0E0,0E0],"parents":[2147483647,0,0,1,1,3,3,4,4,5,5,7,7,8,8,9,9,10,10,13,13,14,14,15,15,16,16,17,17,19,19,22,22],"right_children":[2,4,-1,6,8,10,-1,12,14,16,18,-1,-1,20,22,24,26,28,-1,30,-1,-1,32,-1,-1,-1,-1,-1,-1,-1,-1,-1,-1],"split_conditions":[1.441E0,3.19E-1,-9.694E-2,2.99E-1,3.74E-1,1.37E2,-1.8526115E-1,1.27E2,5.02E-1,1.61E-1,1.63E2,3.217636E-2,2.0728345E-1,1.39E2,5.51E-1,3.32E1,3.51E1,1.42E2,7.672141E-2,3.41E1,9.0196155E-2,1.6551754E-1,9E0,-1.2224063E-1,-7.1838824E-3,1.1540081E-1,-8.387647E-2,-1.8509196E-1,-4.8773862E-2,-1.8183406E-1,1.3621847E-2,-2.4846056E-2,1.3886818E-1],"split_indices":[5,5,0,5,5,1,0,1,5,5,1,0,0,1,5,4,4,1,0,4,0,0,0,0,0,0,0,0,0,0,0,0,0],"split_type":[0,0,0,0,0,0,0,0,0,0,0,0,0,0,0,0,0,0,0,0,0,0,0,0,0,0,0,0,0,0,0,0,0],"sum_hessian":[4.6061237E1,4.499972E1,1.0615146E0,1.9570766E1,2.5428955E1,1.8042446E1,1.5283209E0,2.623505E0,2.280545E1,1.1864948E1,6.1774974E0,1.2860572E0,1.3374478E0,6.3403296E0,1.646512E1,2.2088513E0,9.656097E0,4.3032684E0,1.874229E0,4.786546E0,1.5537833E0,2.0903537E0,1.4374766E1,1.199915E0,1.0089363E0,7.252436E0,2.403661E0,1.0481557E0,3.2551126E0,2.8920412E0,1.8945053E0,1.2752693E1,1.6220728E0],"tree_param":{"num_deleted":"0","num_feature":"7","num_nodes":"33","size_leaf_vector":"1"}},{"base_weights":[-2.4120035E-3,8.9588925E-2,-2.1774169E-2,-2.5868267E-1,1.8571101E-2,-3.8051143E-1,2.9397096E-2,1.2432802E-1,-1.152725E-2,-5.722888E-2,-1.7479067E-1,-2.2362837E-1,4.691134E-2,-9.459913E-2,6.925676E-2,-3.3761787E-1,6.1173063E-2,8.020202E-2,-1.0632823E-1,2.0412542E-2,-1.3261306E-1,4.825077E-2,-2.0438885E-2,9.372706E-2,1.6321723E-3],"categories":[],"categories_nodes":[],"categories_segments":[],"categories_sizes":[],"default_left":[0,0,0,0,0,0,0,0,0,0,0,0,0,0,0,0,0,0,0,0,0,0,0,0,0],"id":33,"left_children":[1,-1,3,5,7,9,-1,-1,11,13,-1,15,17,-1,-1,19,21,23,-1,-1,-1,-1,-1,-1,-1],"loss_changes":[2.744981E-1,0E0,4.2661676E-1,3.1924686E-1,4.6518627E-1,2.960872E-1,0E0,0E0,4.6767431E-1,2.9946056E-1,0E0,2.8493908E-1,4.258312E-1,0E0,0E0,2.8285766E-1,5.1854204E-2,4.8929718E-1,0E0,0E0,0E0,0E0,0E0,0E0,0E0],"parents":[2147483647,0,0,2,2,3,3,4,4,5,5,8,8,9,9,11,11,12,12,15,15,16,16,17,17],"right_children":[2,-1,4,6,8,10,-1,-1,12,14,-1,16,18,-1,-1,20,22,24,-1,-1,-1,-1,-1,-1,-1],"split_conditions":[4.4E1,8.9588925E-2,6.2E1,1.66E2,6.4E1,2.7E1,2.9397096E-2,1.2432802E-1,2.7E1,1.12E2,-1.7479067E-1,6.14E-1,1.154E0,-9.459913E-2,6.925676E-2,2.23E-1,3.85E1,3E0,-1.0632823E-1,2.0412542E-2,-1.3261306E-1,4.825077E-2,-2.0438885E-2,9.372706E-2,1.6321723E-3],"split_indices":[2,0,2,3,2,6,0,0,6,1,0,5,5,0,0,5,4,0,0,0,0,0,0,0,0],"split_type":[0,0,0,0,0,0,0,0,0,0,0,0,0,0,0,0,0,0,0,0,0,0,0,0,0],"sum_hessian":[4.4977688E1,1.8464129E0,4.3131275E1,5.488855E0,3.764242E1,4.041548E0,1.4473069E0,1.757576E0,3.5884846E1,2.0484078E0,1.99314E0,7.1408E0,2.8744045E1,1.0305446E0,1.0178632E0,4.9672484E0,2.1735516E0,2.7281254E1,1.4627911E0,1.0882335E0,3.879015E0,1.0897398E0,1.0838119E0,5.8697853E0,2.1411469E1],"tree_param":{"num_deleted":"0","num_feature":"7","num_nodes":"25","size_leaf_vector":"1"}},{"base_weights":[-3.4404038E-3,-9.474481E-2,1.1965307E-2,1.1403641E-1,-5.3474363E-3,-3.1313685E-1,2.0334426E-2,-1.7635198E-1,3.007933E-2,2.943559E-1,-7.2352285E-3,1.22166425E-1,1.0223868E-2,-2.5348258E-1,2.259757E-2,4.5038927E-3,-1.3375565E-1,2.6517188E-2,-3.5946906E-2],"categories":[],"categories_nodes":[],"categories_segments":[],"categories_sizes":[],"default_left":[0,0,0,0,0,0,0,0,0,0,0,0,0,0,0,0,0,0,0],"id":34,"left_children":[1,-1,3,-1,5,7,9,-1,-1,11,13,-1,-1,15,17,-1,-1,-1,-1],"loss_changes":[2.2230478E-1,0E0,2.8399956E-1,0E0,3.4814453E-1,4.4401607E-1,3.107144E-1,0E0,0E0,9.651685E-2,2.855384E-1,0E0,0E0,2.2350517E-1,3.3753172E-1,0E0,0E0,0E0,0E0],"parents":[2147483647,0,0,2,2,4,4,5,5,6,6,9,9,10,10,13,13,14,14],"right_children":[2,-1,4,-1,6,8,10,-1,-1,12,14,-1,-1,16,18,-1,-1,-1,-1],"split_conditions":[2.29E1,-9.474481E-2,2.4E1,1.1403641E-1,2.64E1,1.38E2,5.2E1,-1.7635198E-1,3.007933E-2,3.31E1,6.1E1,1.22166425E-1,1.0223868E-2,4.26E-1,1.37E2,4.5038927E-3,-1.3375565E-1,2.6517188E-2,-3.5946906E-2],"split_indices":[4,0,4,0,4,1,2,0,0,4,2,0,0,5,1,0,0,0,0],"split_type":[0,0,0,0,0,0,0,0,0,0,0,0,0,0,0,0,0,0,0],"sum_hessian":[4.440923E1,1.1707361E0,4.323849E1,1.0007771E0,4.2237717E1,2.3908753E0,3.984684E1,1.1828907E0,1.2079846E0,2.757964E0,3.7088875E1,1.529948E0,1.2280159E0,3.1976771E0,3.3891197E1,1.7195756E0,1.4781015E0,2.3441471E1,1.0449727E1],"tree_param":{"num_deleted":"0","num_feature":"7","num_nodes":"19","size_leaf_vector":"1"}},{"base_weights":[-5.8921725E-3,-1.12071216E-1,4.2857733E-2,-3.0191699E-2,-1.7962927E-1,7.555432E-2,-2.4359713E-1,-3.3083E-1,7.888461E-2,1.9094893E-1,-5.4334477E-2,1.8914798E-2,-1.2576374E-1,-1.3125595E-1,-2.1993957E-2,-3.1798407E-2,1.2456409E-1,3.9299914E-1,3.724818E-2,-3.3645916E-1,1.0845339E-1,-1.7697892E-1,9.708514E-2,5.1715183E-1,-4.5465073E-3,-2.2696126E-1,2.2602281E-1,4.277164E-2,-1.8255055E-1,3.0455264E-1,-3.351853E-1,2.1117438E-2,-9.9850915E-2,5.1717736E-2,2.2626719E-1,-2.0690443E-2,1.4595234E-1,-7.649494E-3,1.5930489E-1,-1.8162817E-1,4.493183E-2],"categories":[],"categories_nodes":[],"categories_segments":[],"categories_sizes":[],"default_left":[0,0,0,0,0,0,0,0,0,0,0,0,0,0,0,0,0,0,0,0,0,0,0,0,0,0,0,0,0,0,0,0,0,0,0,0,0,0,0,0,0],"id":35,"left_children":[1,3,5,7,-1,9,11,13,15,17,19,-1,-1,-1,-1,21,-1,23,25,27,29,31,-1,33,-1,-1,35,-1,-1,37,39,-1,-1,-1,-1,-1,-1,-1,-1,-1,-1],"loss_changes":[2.384751E-1,5.5901E-1,3.1495363E-1,4.671265E-1,0E0,4.47761E-1,2.1385978E-1,7.158548E-2,4.1062915E-1,4.721359E-1,7.0274734E-1,0E0,0E0,0E0,0E0,5.1967967E-1,0E0,3.4569645E-1,1.6705205E0,8.1023663E-1,9.6816796E-1,2.936561E-1,0E0,2.9014826E-1,0E0,0E0,7.13934E-1,0E0,0E0,5.6871706E-1,5.5299926E-1,0E0,0E0,0E0,0E0,0E0,0E0,0E0,0E0,0E0,0E0],"parents":[2147483647,0,0,1,1,2,2,3,3,5,5,6,6,7,7,8,8,9,9,10,10,15,15,17,17,18,18,19,19,20,20,21,21,23,23,26,26,29,29,30,30],"right_children":[2,4,6,8,-1,10,12,14,16,18,20,-1,-1,-1,-1,22,-1,24,26,28,30,32,-1,34,-1,-1,36,-1,-1,38,40,-1,-1,-1,-1,-1,-1,-1,-1,-1,-1],"split_conditions":[1.12E2,1.1E2,1E1,2E0,-1.7962927E-1,1.8E1,7.5E1,1.02E2,1.07E2,1.27E2,1.28E2,1.8914798E-2,-1.2576374E-1,-1.3125595E-1,-2.1993957E-2,3.79E1,1.2456409E-1,3.41E1,1.3E2,2E0,6.19E-1,3.11E1,9.708514E-2,3.11E1,-4.5465073E-3,-2.2696126E-1,3.25E1,4.277164E-2,-1.8255055E-1,3E-1,7.5E1,2.1117438E-2,-9.9850915E-2,5.1717736E-2,2.2626719E-1,-2.0690443E-2,1.4595234E-1,-7.649494E-3,1.5930489E-1,-1.8162817E-1,4.493183E-2],"split_indices":[1,1,0,0,0,3,2,1,1,1,1,0,0,0,0,4,0,4,1,0,5,4,0,4,0,0,4,0,0,5,2,0,0,0,0,0,0,0,0,0,0],"split_type":[0,0,0,0,0,0,0,0,0,0,0,0,0,0,0,0,0,0,0,0,0,0,0,0,0,0,0,0,0,0,0,0,0,0,0,0,0,0,0,0,0],"sum_hessian":[4.414338E1,1.3481432E1,3.0661945E1,1.2449078E1,1.0323548E0,2.8181492E1,2.4804533E0,2.7730174E0,9.67606E0,1.4674453E1,1.350704E1,1.1366681E0,1.3437852E0,1.4664632E0,1.3065542E0,7.9614644E0,1.7145958E0,5.6673803E0,9.007072E0,4.5517054E0,8.955335E0,6.008966E0,1.9524981E0,4.1407833E0,1.526597E0,1.1526455E0,7.8544264E0,1.8210303E0,2.7306752E0,6.427661E0,2.527673E0,2.5345676E0,3.4743986E0,2.3909478E0,1.7498355E0,4.028036E0,3.8263907E0,2.9767354E0,3.4509258E0,1.463647E0,1.064026E0],"tree_param":{"num_deleted":"0","num_feature":"7","num_nodes":"41","size_leaf_vector":"1"}},{"base_weights":[-1.0274235E-2,-2.4766723E-2,8.7800086E-2,-1.1779541E-1,4.494858E-2,-5.4906487E-2,-1.6126522E-1,3.880759E-1,-1.8370612E-2,-1.2507649E-1,2.327386E-1,1.6308662E-1,-3.3381048E-3,-1.3985842E-1,2.6896415E-2,7.677459E-2,-1.8252985E-1,-6.701237E-2,1.4650235E-1,-4.247919E-2,2.2199185E-1,-8.4462665E-2,2.8779829E-2,1.2284245E-2,-9.4837435E-2,-5.722264E-2,1.0996661E-1],"categories":[],"categories_nodes":[],"categories_segments":[],"categories_sizes":[],"default_left":[0,0,0,0,0,0,0,0,0,0,0,0,0,0,0,0,0,0,0,0,0,0,0,0,0,0,0],"id":36,"left_children":[1,3,-1,5,7,9,-1,11,13,15,17,-1,-1,-1,19,-1,21,-1,-1,23,25,-1,-1,-1,-1,-1,-1],"loss_changes":[1.9899696E-1,2.8159612E-1,0E0,4.5953688E-1,5.519585E-1,3.7679902E-1,0E0,2.5143546E-1,4.6104643E-1,3.6406797E-1,5.436692E-1,0E0,0E0,0E0,2.9419252E-1,0E0,3.9045584E-1,0E0,0E0,3.8642332E-1,4.087971E-1,0E0,0E0,0E0,0E0,0E0,0E0],"parents":[2147483647,0,0,1,1,3,3,4,4,5,5,7,7,8,8,9,9,10,10,14,14,16,16,19,19,20,20],"right_children":[2,4,-1,6,8,10,-1,12,14,16,18,-1,-1,-1,20,-1,22,-1,-1,24,26,-1,-1,-1,-1,-1,-1],"split_conditions":[9.6E1,3.19E-1,8.7800086E-2,2.99E-1,3.85E-1,2.72E-1,-1.6126522E-1,3.8E1,4.02E-1,5.4E1,7.2E1,1.6308662E-1,-3.3381048E-3,-1.3985842E-1,7E0,7.677459E-2,1.05E2,-6.701237E-2,1.4650235E-1,1.46E2,2.77E1,-8.4462665E-2,2.8779829E-2,1.2284245E-2,-9.4837435E-2,-5.722264E-2,1.0996661E-1],"split_indices":[2,5,0,5,5,5,0,6,5,2,2,0,0,0,0,0,3,0,0,1,4,0,0,0,0,0,0],"split_type":[0,0,0,0,0,0,0,0,0,0,0,0,0,0,0,0,0,0,0,0,0,0,0,0,0,0,0],"sum_hessian":[4.2674797E1,4.1602795E1,1.072002E0,1.7526125E1,2.407667E1,1.6225918E1,1.3002063E0,2.9518244E0,2.1124846E1,1.3498241E1,2.727677E0,1.8638294E0,1.0879949E0,1.085664E0,2.003918E1,1.3161454E0,1.2182096E1,1.0248884E0,1.7027887E0,1.5359598E1,4.6795826E0,8.978552E0,3.203544E0,1.2422652E1,2.9369466E0,1.1310267E0,3.5485559E0],"tree_param":{"num_deleted":"0","num_feature":"7","num_nodes":"27","size_leaf_vector":"1"}},{"base_weights":[-6.9708284E-3,-4.7050014E-2,1.06748044E-1,-7.4068524E-2,9.897117E-2,1.4599423E-1,1.4989697E-2,7.658803E-2,-1.6440949E-1,-8.3140515E-2,9.689443E-2,-8.945531E-3,1.1909527E-1,-2.1454449E-1,5.8660943E-2,1.533514E-1,-2.841825E-2,2.98962E-1,-1.415015E-1,-1.6943318E-1,-1.5876001E-1,-1.498579E-1,9.900283E-2,7.677543E-4,1.4586076E-1,-1.4840975E-1,1.3028319E-2,1.0020966E-2,-8.52436E-2,-8.06027E-2,7.071478E-2],"categories":[],"categories_nodes":[],"categories_segments":[],"categories_sizes":[],"default_left":[0,0,0,0,0,0,0,0,0,0,0,0,0,0,0,0,0,0,0,0,0,0,0,0,0,0,0,0,0,0,0],"id":37,"left_children":[1,3,5,7,-1,-1,9,11,13,-1,15,17,-1,19,-1,-1,21,23,25,-1,27,29,-1,-1,-1,-1,-1,-1,-1,-1,-1],"loss_changes":[2.0123988E-1,3.5570776E-1,3.9445177E-1,4.367969E-1,0E0,0E0,2.7364385E-1,3.4243044E-1,3.9929265E-1,0E0,4.7120774E-1,4.8058036E-1,0E0,2.5923252E-1,0E0,0E0,3.8466853E-1,1.959346E-1,5.561177E-1,0E0,4.141625E-1,3.5836685E-1,0E0,0E0,0E0,0E0,0E0,0E0,0E0,0E0,0E0],"parents":[2147483647,0,0,1,1,2,2,3,3,6,6,7,7,8,8,10,10,11,11,13,13,16,16,17,17,18,18,20,20,21,21],"right_children":[2,4,6,8,-1,-1,10,12,14,-1,16,18,-1,20,-1,-1,22,24,26,-1,28,30,-1,-1,-1,-1,-1,-1,-1,-1,-1],"split_conditions":[4.3E1,1.182E0,4.5E1,6.8E1,9.897117E-2,1.4599423E-1,7.2E1,7E0,